%YAML:1.0
my_svm: !!opencv-ml-svm
   svm_type: C_SVC
   kernel: { type:LINEAR }
   C: 1.0000000000000001e-01
   term_criteria: { epsilon:1.1920928955078125e-07, iterations:1000 }
   var_all: 10560
   var_count: 10560
   class_count: 3
   class_labels: !!opencv-matrix
      rows: 1
      cols: 3
      dt: i
      data: [ 0, 1, 2 ]
   sv_total: 3
   support_vectors:
      - [ -3.68536101e-03, 2.76293606e-03, 3.40535212e-03,
          9.52795148e-03, 5.15916059e-03, 2.17667455e-03,
          -1.93170516e-03, -1.56317186e-02, -1.96626652e-02,
          -1.65571533e-02, -3.64760589e-03, -7.06539082e-04,
          -4.73151775e-03, -3.28598591e-03, -8.41771998e-03,
          -4.49134083e-03, -9.45157371e-03, 3.21255135e-03,
          5.18271886e-03, 4.77626920e-03, 8.85016576e-04,
          -1.15063129e-04, -2.09105667e-03, -5.32061281e-03,
          -3.87815549e-03, -1.26528728e-03, -1.47970059e-04,
          4.78614727e-03, 5.61596500e-03, 6.34584995e-03,
          -2.89713778e-03, -1.14392452e-02, 1.28037492e-02,
          6.50474848e-03, 6.14184234e-03, 1.06258132e-02, 9.54471715e-03,
          7.76060112e-03, 1.57178368e-03, -1.57354344e-02,
          -3.12813334e-02, -1.48533694e-02, -4.96730674e-03,
          -6.08824426e-04, -6.73831848e-04, 3.93565977e-03,
          -8.49008618e-04, 1.07946461e-02, 7.34459329e-03,
          6.40183873e-03, 7.06054224e-03, 7.93677103e-03, 7.51119293e-03,
          6.48245774e-03, 3.59938829e-03, -1.20508503e-02,
          -2.09526028e-02, -2.00710562e-03, 3.09141190e-03,
          4.49272711e-03, 8.83930363e-03, 9.33749508e-03, 2.13291799e-03,
          4.11464693e-03, -1.04073202e-02, 1.47543091e-03,
          7.88823422e-03, 4.20374842e-03, -2.55799503e-03,
          -2.77217734e-03, -3.64068081e-03, -6.07680948e-03,
          -3.80680687e-03, 1.54705846e-03, -2.03271993e-04,
          6.34624856e-03, 6.22869981e-03, 3.27084190e-03,
          -7.60300411e-03, -1.34505657e-02, -8.41762684e-03,
          -1.93135464e-03, 5.09304507e-03, 4.28822450e-03,
          1.21802697e-03, -1.56880880e-03, -4.13740578e-04,
          -4.10497095e-03, -4.06368216e-03, 2.93738092e-03,
          -9.97617026e-04, 1.96813885e-03, 3.59831285e-03,
          -6.12459960e-04, -1.04975766e-02, -1.26774469e-02,
          1.76077511e-03, 1.50993164e-03, 7.12640304e-03, 8.23431276e-03,
          4.42872196e-03, 2.41477764e-03, 4.13339911e-03, 2.37604906e-03,
          -5.34999184e-03, 5.63123729e-03, 6.62156194e-03,
          7.18368078e-03, 9.36046802e-03, 5.12383226e-03,
          -5.54570556e-03, -3.89475399e-03, 2.37115542e-03,
          -1.16655813e-03, 4.10283683e-03, 3.60271940e-03,
          1.18903234e-03, 9.74984781e-04, 2.77498621e-03,
          -1.90314872e-03, -2.07128352e-03, 8.26103613e-03,
          6.69802632e-03, 7.84241129e-03, 6.20965101e-03,
          -3.15391517e-04, -7.87326507e-03, -5.90397185e-03,
          -4.71826456e-03, -2.59155873e-03, 2.31981836e-03,
          5.06276917e-03, 2.05556513e-03, -6.50411064e-04,
          -1.74719945e-03, -3.98329552e-03, -2.19733780e-03,
          5.90150477e-04, -1.41312624e-03, -1.32218795e-03,
          4.81332449e-04, 1.92690539e-04, -4.19271691e-03,
          -9.88390483e-03, -4.95213084e-03, -2.34122365e-03,
          2.21126829e-03, 1.32688310e-03, -3.01712472e-03,
          1.06665131e-03, 3.70085909e-04, -4.50357003e-03,
          -1.95513689e-03, 2.79136677e-03, 1.05665310e-03,
          -2.56252685e-03, -4.30187583e-03, 1.43847341e-04,
          1.43245119e-03, -6.08742796e-03, 9.21156630e-03,
          2.52887630e-03, 1.64262287e-03, 5.24010742e-03, 3.64602718e-04,
          9.18731850e-04, 7.27869337e-04, -3.45514785e-03,
          -5.84716583e-03, 1.77613040e-03, 2.10735295e-03,
          3.80567322e-03, 4.15253511e-04, 6.55640499e-04, 4.40947711e-03,
          2.16864282e-03, 8.18993617e-03, 5.86140109e-03, 1.13556907e-03,
          4.03985847e-04, -1.33283064e-03, -1.00211648e-03,
          -2.25638296e-03, -7.78263994e-03, -8.66765995e-03,
          -1.40702550e-03, -2.62166490e-04, -1.22629479e-03,
          -4.22235718e-03, -1.03978848e-03, 5.07022301e-03,
          1.41743210e-03, -4.98825964e-03, 2.31393776e-03,
          2.81996164e-03, 9.92985559e-04, -3.69223859e-03,
          6.29244547e-04, 6.28976035e-04, -5.45885507e-03,
          -3.10288020e-03, 1.68614031e-03, 1.63054338e-03,
          1.00497738e-03, -1.91124692e-03, 4.69171535e-03,
          -5.98347222e-04, -6.40050741e-03, -4.33734758e-03,
          -4.43002442e-03, 4.10128923e-05, 2.48662243e-03,
          1.30063831e-03, 4.08556865e-04, -2.56286748e-03,
          -3.40443477e-03, -3.88378254e-03, -1.17592304e-03,
          -3.20603693e-04, 3.08117224e-03, 4.35233489e-03,
          4.30794340e-03, -3.96170607e-03, -7.89767597e-03,
          9.93587263e-03, 1.28752645e-02, 3.28046619e-03, 1.64038662e-04,
          -2.75905314e-03, -1.79086416e-03, -3.11076315e-03,
          -1.07066697e-02, -8.96809809e-03, -2.97571067e-03,
          -1.38575467e-03, -2.62104382e-04, -1.83025084e-03,
          5.35290106e-04, 5.59794530e-03, 5.50622446e-03, 7.77748553e-03,
          1.10938365e-03, -8.90091760e-04, -3.76036391e-03,
          -3.67396511e-03, -2.55456427e-03, -4.81098332e-03,
          -5.25121670e-03, -3.46473115e-03, -2.60987855e-03,
          -3.10409116e-04, 2.64436961e-03, 1.92375854e-03,
          1.38345093e-03, 1.51970994e-03, 4.64563770e-03,
          -7.97583349e-03, -3.09702405e-03, -1.08304701e-03,
          2.76510145e-05, 1.60607067e-03, -2.27209227e-03,
          -2.56792805e-03, -2.36428669e-03, -1.54998084e-03,
          4.41292505e-04, 1.45995955e-03, 5.05082356e-03, 4.33674362e-03,
          4.38648695e-03, 2.51414930e-03, -1.24571705e-02,
          -4.75909607e-03, 5.32895699e-03, 1.06800662e-05,
          -3.65011347e-03, -1.95378577e-03, -4.51548351e-03,
          -1.99279911e-03, -3.40958033e-03, 8.95325211e-04,
          3.48497834e-03, 5.26191900e-03, 5.14824269e-03, 4.71966527e-03,
          6.19192654e-03, 1.51452562e-03, -1.22653926e-02,
          5.00539877e-03, 2.67854123e-03, 1.62145600e-03,
          -1.88316545e-03, -9.64497449e-04, -1.55042321e-03,
          -9.23356856e-04, 3.88234435e-03, 6.62994478e-03,
          3.31159378e-03, 2.79159402e-03, 6.05843449e-03, 3.07653937e-03,
          4.51043452e-05, 3.80630558e-03, -8.37310799e-04,
          -9.25246219e-04, 5.84324496e-03, 1.84670871e-03,
          -1.18933793e-03, 5.29724406e-04, -7.57105998e-04,
          3.65293049e-03, 7.14372844e-03, 7.95811880e-03, 7.79712526e-03,
          5.22733759e-03, 5.95978647e-03, -5.79044456e-04,
          1.03884481e-03, 8.10406636e-03, -5.43869473e-03,
          -4.94305510e-03, -1.83944940e-03, -1.81072357e-03,
          -5.78225870e-03, -1.43798231e-03, -2.53097643e-03,
          -5.23843395e-04, 2.03186623e-03, 3.84526607e-03,
          2.89141736e-03, 8.60463071e-04, 1.75724376e-03, 2.97795492e-03,
          2.62792362e-03, -1.30615791e-03, -1.02940369e-02,
          -8.08746088e-03, -2.89555336e-03, -2.21311650e-03,
          -6.45729946e-03, -9.07020352e-04, -9.29414644e-04,
          -1.85420376e-03, -4.87997895e-03, -6.32087141e-03,
          -3.99358151e-03, -7.31631974e-03, -1.73094543e-03,
          1.43631746e-03, 5.84133202e-04, -6.29425049e-04,
          -1.32161761e-02, -5.14649320e-03, 7.41272187e-03,
          -1.84194825e-03, -3.17419134e-03, 1.39563601e-03,
          -3.53804207e-04, 6.03742152e-03, 1.31554250e-02,
          1.33417789e-02, 1.10479593e-02, 4.15795064e-03, 4.42548841e-03,
          1.72409718e-03, 7.24590663e-03, 1.07472343e-02,
          -3.42254923e-03, -7.43245101e-03, 7.93155190e-03,
          7.03975500e-04, 3.94407863e-04, 6.17828500e-03, 4.93606739e-03,
          5.76762110e-03, 1.11294221e-02, 1.27574392e-02, 4.21687681e-03,
          3.30520968e-04, 1.44814909e-03, 1.86312420e-03, 9.35462955e-03,
          1.60299968e-02, -1.53485371e-03, -6.76789414e-03,
          -4.37152293e-03, 3.68096371e-04, -7.81823765e-04,
          4.16991708e-04, 1.86864403e-03, 5.57403910e-05,
          -3.58103239e-03, -3.82964686e-03, -1.21625280e-03,
          -2.42386688e-03, 1.18225103e-03, 2.68094288e-03,
          -1.22169964e-03, -2.96254200e-03, -9.38227959e-03,
          -5.46983536e-03, -7.54561694e-03, -4.21655923e-03,
          3.02404631e-04, 1.82705850e-03, 1.20181117e-04,
          -4.54184646e-03, -4.77421470e-03, -4.62943967e-03,
          -1.61182473e-03, -1.34705380e-03, 2.84656626e-03,
          3.71734099e-03, 3.84032464e-05, -6.20228006e-03,
          -2.38603516e-03, -7.26594357e-03, 9.14934836e-03,
          5.23757562e-03, 5.25159482e-03, 5.00062155e-03, 8.50716140e-03,
          9.70748905e-03, 1.16022341e-02, 1.59011409e-02, 2.56098155e-03,
          5.27313771e-03, 5.28040575e-03, 3.42358137e-03, 4.64191567e-03,
          1.18004642e-02, 4.54764487e-03, -5.02892490e-03,
          5.05391322e-03, 3.06460075e-03, 2.75161047e-03, 3.88439908e-03,
          6.48375647e-03, 3.32027255e-03, 6.74626650e-03, 9.59012005e-03,
          4.38427366e-03, 6.74163224e-03, 5.01209497e-03, 5.37267886e-03,
          2.89619807e-03, 6.58085989e-03, 3.34809674e-03,
          -6.13632286e-03, -6.25352981e-03, -6.55301288e-03,
          1.18561054e-03, 1.38162624e-03, 7.76118482e-04,
          -3.90090072e-03, -4.62910812e-03, -2.55785021e-03,
          1.27211935e-03, 1.83069229e-03, 3.48426378e-03, 2.28725607e-03,
          3.75894277e-04, -6.12101052e-03, -3.60440463e-03,
          -6.59565534e-03, -1.04729906e-02, -1.73157128e-03,
          3.00255627e-03, 8.09012505e-04, 5.27241826e-03, 2.41282815e-03,
          3.27284704e-03, 4.07272158e-03, 2.68800533e-03, 1.76347001e-03,
          2.70847930e-03, 5.16148633e-04, -4.64113336e-03,
          -9.20145400e-03, -5.58986748e-03, -3.32943792e-03,
          2.64901202e-03, 1.50195369e-03, -1.75923502e-04,
          2.15224409e-03, 2.71582045e-03, -1.47931138e-03,
          1.11659465e-03, 7.77222076e-03, 7.21134292e-03, 7.49410829e-03,
          6.02782192e-03, 4.70468868e-03, 3.77862505e-03, 6.80462085e-03,
          3.00839660e-04, -3.12547688e-03, 4.44455259e-03,
          5.46743255e-03, 1.35960372e-03, 2.47684598e-04, 5.42230764e-03,
          7.92415114e-04, 4.38443525e-03, 3.02205910e-03, 2.31104973e-03,
          -1.10896377e-04, 1.86082697e-03, 3.63874226e-03,
          2.35511875e-03, 7.51470122e-03, -3.59208294e-04,
          -6.57441607e-03, -9.80335101e-03, -7.26251397e-04,
          -3.08133475e-03, -2.64140568e-03, -1.28725107e-04,
          -1.66636310e-03, -3.81677353e-04, 7.37065566e-04,
          2.17745663e-03, -8.82485358e-04, -7.22427387e-04,
          2.36386177e-03, -2.98885326e-03, -1.57769900e-02,
          -1.16763664e-02, -6.33568922e-03, -5.89152891e-03,
          3.14112403e-03, 1.55745260e-03, 2.88374326e-03, 8.15990032e-04,
          -5.13043837e-04, 5.50341373e-03, 4.58955904e-03,
          7.15654576e-03, 5.88894729e-03, 2.38195388e-03, 1.19347638e-03,
          1.58917089e-03, -9.32925474e-03, -9.95138288e-03,
          5.40655991e-03, 5.96194062e-03, 4.04930767e-03,
          -1.21503690e-04, 1.22929935e-03, 1.42075005e-03,
          -3.91708128e-03, -5.96141152e-04, -1.10351876e-03,
          -2.83893081e-03, -2.77235592e-03, 1.05368916e-03,
          5.86130749e-03, 4.04947996e-03, 6.92137657e-03, 3.52800731e-03,
          1.58957182e-03, 4.00278158e-03, 2.62217456e-03, 1.96863920e-03,
          2.85231252e-03, -2.41092010e-03, -8.73731636e-03,
          -1.83234003e-03, -7.78637500e-03, -4.74783638e-03,
          1.16366474e-03, -8.80725216e-04, 4.29725926e-03,
          2.82780197e-03, 7.89406057e-03, 2.82351073e-04,
          -2.68971594e-03, -6.36130990e-03, 1.51824800e-03,
          4.53536212e-03, 8.33854452e-03, 6.09081984e-03, 5.29543543e-03,
          5.75819006e-03, 5.49046416e-03, 6.79794792e-03, 9.52434447e-03,
          4.89173271e-03, 4.92655672e-03, 5.87491179e-03,
          -4.55296692e-03, -4.30100271e-03, -5.54406596e-03,
          -4.31390386e-03, 4.36943816e-03, 1.01959165e-02,
          1.17518511e-02, 8.50100722e-03, 7.81026389e-03, 1.46101485e-03,
          2.27394118e-03, 2.33306806e-03, 7.68206129e-03, 5.50743705e-03,
          1.15049854e-02, 9.61275026e-03, 2.03886838e-03,
          -4.06845193e-03, 9.59695899e-04, -3.94874392e-03,
          -2.01358018e-03, -9.92870657e-04, -1.90625447e-04,
          -3.15135322e-03, -7.02439481e-03, -1.09597603e-02,
          -1.49776107e-02, -5.75015647e-03, 4.57509374e-03,
          4.53408016e-03, 4.26257821e-03, 3.50697432e-03, 6.05086330e-03,
          3.93827632e-03, 1.12284143e-02, 3.64914513e-03, 6.83336228e-04,
          1.34497450e-03, -3.75176989e-03, -6.10164972e-03,
          -6.29236083e-03, -1.91345736e-02, -1.92017909e-02,
          -1.13900714e-02, 2.02493378e-04, 4.95306822e-03,
          6.04433194e-03, 2.36159284e-03, 5.25290286e-03, 3.92432651e-03,
          1.60110136e-03, 1.63178460e-03, 6.56729611e-03, 1.16270753e-02,
          7.13105267e-03, 4.64672828e-03, 4.63366462e-03, 1.89569441e-03,
          2.07194244e-03, 2.47340370e-03, 4.79233079e-03, 8.09232239e-03,
          8.67770053e-03, 8.58431868e-03, 6.35856576e-03, 2.98753264e-03,
          -2.01607379e-03, -2.35020183e-03, 2.83660553e-03,
          7.21299741e-03, -4.29897511e-04, -7.68863130e-04,
          -2.31746072e-03, -8.50964990e-03, -1.05511080e-02,
          -4.22892347e-03, -7.14479655e-04, -2.30095000e-03,
          1.34391623e-04, 1.64951000e-03, 3.32329934e-03,
          -4.12555906e-04, 1.40864598e-02, 7.48481881e-03,
          4.31791041e-03, 4.87208925e-03, 8.17212567e-04,
          -4.76203533e-03, -4.49070660e-03, -1.48598840e-02,
          -1.22487880e-02, -8.68120417e-03, -1.72420847e-03,
          5.09498641e-03, 8.34471267e-03, 6.37382036e-03, 7.00517092e-03,
          9.87967290e-03, 7.24952621e-03, -9.65455954e-04,
          -2.54988763e-03, -2.75182631e-03, -4.55870479e-03,
          -7.86080305e-03, -1.38246696e-02, -2.04998981e-02,
          -2.36763712e-02, -1.49704861e-02, -4.41672187e-03,
          8.75101541e-04, 8.05551652e-03, 7.92705547e-03, 7.79891666e-03,
          9.15905274e-03, 8.10933113e-03, 6.80384692e-03, 1.56803755e-03,
          1.22851611e-03, 1.21776480e-03, -4.07949585e-04,
          -7.47419056e-03, -9.39001702e-03, -1.37152495e-02,
          -3.58488224e-03, -1.22311222e-03, -3.78031819e-03,
          -4.00333293e-03, -1.63348066e-03, 1.35765504e-03,
          9.84772202e-03, 1.45517541e-02, 1.09534170e-02, 1.20433292e-03,
          -9.23201034e-04, 1.05268997e-03, -5.96316007e-04,
          -7.42246676e-03, -6.30043168e-03, -1.14329439e-02,
          5.60422370e-04, 1.91317988e-03, 3.06844071e-04,
          -3.13699059e-03, 3.07851192e-03, 6.72662491e-03,
          1.79393273e-02, 9.71970614e-03, 4.72026784e-03, 2.27178610e-03,
          -7.27031671e-04, -1.56555593e-03, -4.35194280e-03,
          -1.78397577e-02, -1.94069296e-02, -2.46924646e-02,
          -1.32364947e-02, 8.56559782e-05, 2.71076639e-03,
          7.57028488e-03, 9.76436306e-03, 9.34149511e-03, 1.17320279e-02,
          1.79275367e-02, 1.41086485e-02, 7.75717385e-03, 1.63317355e-03,
          -3.18339025e-03, -4.73176455e-03, -1.31822415e-02,
          -2.12347880e-02, -2.37384643e-02, -6.99359272e-03,
          4.14252048e-03, 3.00136744e-03, 5.79755893e-03, 1.01120165e-02,
          1.45572070e-02, 2.12357398e-02, 2.04765354e-03, 6.57872809e-03,
          1.05296902e-03, -4.83213895e-04, -2.18454376e-03,
          -2.09904800e-04, -3.97294341e-03, -3.13022430e-03,
          -4.38476726e-03, 6.64663967e-03, 4.58882889e-03,
          4.86227404e-03, 2.43738247e-03, 2.75490130e-03, 7.68481940e-03,
          2.86462181e-03, -6.07086485e-03, -1.43401104e-03,
          -1.10971287e-03, -5.11873420e-03, -4.97890776e-03,
          -5.15039498e-03, -1.61294220e-03, 2.13445770e-03,
          4.17762576e-03, 4.81199939e-03, 9.58796358e-04, 2.23534997e-03,
          -4.59933653e-04, -2.68361717e-03, -1.05111720e-03,
          -7.78656686e-03, 6.75964821e-03, 1.25341890e-02,
          6.99498132e-03, 4.27413452e-03, -6.81769510e-04,
          -2.76389625e-03, -4.95792646e-03, -1.08605707e-02,
          -1.31337456e-02, -2.48177006e-04, 2.76114256e-03,
          5.77085651e-03, 5.60132274e-03, 5.60350157e-03, 9.57530737e-03,
          9.76758171e-03, -6.50697481e-03, 7.09230546e-03,
          7.21540488e-03, 2.54277489e-03, -4.40652802e-04,
          -6.02953005e-05, 5.27621887e-04, -6.80723973e-03,
          7.32646789e-04, -1.23438309e-03, -1.00543166e-05,
          5.26569504e-03, 2.66044540e-03, 4.77353204e-03, 2.60677282e-03,
          -6.30113715e-03, -2.86770379e-03, 3.13384971e-03,
          -1.17788545e-03, -4.59434697e-03, -3.99684475e-04,
          -2.32736161e-03, 5.98040270e-03, -2.61635799e-03,
          8.32758436e-04, 1.07792625e-02, 1.98612222e-03, 5.19296527e-03,
          5.39315399e-03, 4.34029335e-03, 6.47647679e-03, 2.51904782e-03,
          -2.55040103e-03, -3.67415021e-03, -6.18510460e-03,
          -5.29057253e-03, -2.10982654e-03, -5.52976970e-04,
          2.78605917e-03, 3.51096480e-03, 4.45687212e-03, 8.21671356e-03,
          -2.74975377e-04, -1.77406473e-03, 2.96544516e-03,
          2.72607547e-03, 4.59308911e-04, -2.81142384e-05,
          -1.21477607e-03, 1.10643897e-02, 7.51865515e-03,
          1.84285175e-03, 5.31918893e-04, -2.03311746e-03,
          6.27307361e-03, -7.37511693e-03, -2.64868746e-03,
          1.67256279e-03, 1.98475597e-03, 9.33304522e-03, 8.17316677e-03,
          7.39560416e-03, 7.25027826e-03, -2.09394866e-03,
          -8.15165509e-03, -1.00653572e-03, 6.54196774e-04,
          -3.36360140e-03, -2.13084160e-03, -3.45373922e-03,
          4.95957024e-03, 2.95821996e-03, 2.31954083e-03, 1.86749536e-03,
          -5.30316960e-03, 1.85743754e-03, 4.07771859e-03,
          4.14847955e-03, 5.37158037e-03, -6.56337850e-03,
          -5.87218720e-03, -3.69499065e-03, -6.27391087e-03,
          -4.23159217e-03, -5.18240454e-03, -2.05581589e-03,
          -7.07724364e-04, 1.45550142e-03, 3.94140510e-03,
          7.06005143e-03, 1.93036464e-03, -5.75306686e-03,
          -3.56659293e-03, -1.96219981e-03, -5.27292781e-04,
          -1.04608377e-02, -2.92915734e-03, 2.95708864e-03,
          -3.86508997e-03, -4.03010566e-03, -2.35102343e-04,
          2.35538391e-04, 6.02657301e-03, 3.91649781e-03, 1.59435417e-03,
          7.07516680e-03, 8.57893098e-03, 1.16097659e-03, 2.35451851e-03,
          3.03231791e-04, 4.67615807e-03, -6.83338428e-03,
          -9.08148848e-03, -6.63569663e-03, -5.91431465e-03,
          -6.13235636e-03, -5.65458182e-03, -9.71929915e-03,
          -4.34651226e-03, -1.32196315e-03, 7.49458733e-04,
          -1.85035274e-03, -1.75750488e-03, -4.26012650e-03,
          -7.46633974e-04, 7.55672285e-04, 3.15346266e-03,
          -6.30291225e-03, -7.03000929e-03, -1.83921526e-04,
          -2.23844266e-03, -4.56957193e-03, -2.02110200e-03,
          -4.59195348e-03, -2.02717469e-03, -2.11383704e-05,
          4.61725751e-03, 6.22747978e-03, 8.50016903e-03, 2.08527409e-03,
          2.04695459e-03, 1.97319291e-03, 6.23950269e-03,
          -5.38031850e-03, 1.29016787e-02, 4.63538524e-03,
          5.87486010e-03, 7.79392011e-03, 1.39382305e-02, 1.49606699e-02,
          2.48303041e-02, -1.41293928e-02, -3.36390883e-02,
          -5.15319116e-04, 1.88394682e-03, 5.80075895e-03,
          6.06387714e-03, 7.71970442e-03, 6.55805180e-03, 1.48550496e-02,
          1.57531630e-02, 6.69965474e-03, 7.99601525e-03, 1.09934490e-02,
          1.29046217e-02, 1.14078410e-02, 1.78478286e-02,
          -5.16420556e-03, -1.95234641e-02, 5.10366866e-03,
          9.78166051e-03, 9.65142809e-03, 9.36066732e-03, 1.07748266e-02,
          1.09934295e-02, 1.46656074e-02, 2.40381551e-03,
          -5.31690312e-04, -2.61969981e-03, -2.06815498e-03,
          4.09347890e-03, 1.48565657e-02, 3.36569138e-02,
          -9.24612209e-03, -2.26430465e-02, 4.40802099e-03,
          2.47711595e-03, 3.83743597e-03, 4.37488826e-03, 2.67837872e-03,
          5.68681338e-04, 8.43372720e-04, 4.84509161e-03, 1.04999170e-03,
          -1.69540127e-03, -1.15293404e-03, 2.11567851e-03,
          7.12742517e-03, 2.15701740e-02, -1.02697890e-02,
          -2.22971048e-02, 7.79065909e-03, 5.05964458e-03,
          6.53072586e-03, 4.54347814e-03, 5.83466515e-03, 1.84358971e-03,
          1.39145146e-03, 1.05927908e-03, -3.86930560e-03,
          1.31771504e-03, 3.47885326e-03, 7.26188347e-03, 8.15178547e-03,
          1.02289496e-02, -1.04388278e-02, -1.47003941e-02,
          5.64107811e-03, 5.31945610e-03, 1.26591895e-03, 4.61997610e-04,
          3.94603284e-03, -2.74626212e-03, -1.17708230e-03,
          -3.24769970e-03, -3.88390338e-03, 2.37156567e-03,
          1.49217714e-03, 1.38913665e-03, 2.10460601e-03, 4.77252156e-03,
          2.23873043e-03, -3.53992241e-03, 4.26766276e-03,
          2.04481580e-03, 1.18165661e-03, 4.21882811e-04, 1.14987371e-03,
          -4.10930067e-03, -8.06766329e-04, 1.54625904e-03,
          -1.83955440e-03, -4.75933682e-03, -5.64716663e-03,
          4.99260565e-03, 4.14806278e-03, 1.23768365e-02,
          -9.48057882e-03, -1.56469699e-02, 3.63528403e-03,
          -5.10807498e-04, -5.80260414e-04, -1.99077348e-03,
          2.53210682e-03, -1.82011130e-03, -2.14166869e-03,
          -2.62001686e-06, 9.07923968e-04, 6.12787728e-04,
          -4.36956668e-03, -7.83906202e-04, -1.57846254e-04,
          7.05805141e-03, -3.56341433e-03, -1.05311461e-02,
          1.42550585e-03, -1.13516848e-03, -2.66648969e-03,
          -3.01377801e-03, 5.78884617e-04, 2.18316540e-03,
          -1.12474454e-03, -9.48152738e-04, 1.90425001e-03,
          2.25364626e-03, 4.66492213e-03, -4.60361625e-04,
          1.47549936e-03, 1.18793151e-03, -6.87053427e-03,
          -8.88224319e-03, -5.60041750e-04, -9.08791204e-04,
          -2.39587342e-03, -2.21930142e-03, -4.56949958e-04,
          4.46186168e-03, 8.49222590e-04, 6.53158687e-03, 1.00093549e-02,
          4.08955431e-03, 5.22683002e-03, 1.27894193e-04, 1.40821259e-03,
          5.61968656e-04, -1.52927143e-02, -1.87718738e-02,
          -2.29493855e-03, 1.13955687e-03, -5.34740603e-03,
          -6.74105342e-03, 5.11694350e-04, 9.62583907e-03,
          4.75116028e-03, -1.59705244e-03, 8.28337949e-03,
          4.40461934e-03, -3.24226730e-03, -7.54152983e-03,
          -5.64658688e-03, -4.23793797e-04, -1.04935002e-02,
          -1.28333680e-02, -1.38347177e-03, -4.14141407e-03,
          -6.73902314e-03, -3.64493812e-03, -9.04571352e-05,
          3.51446285e-03, -3.34912259e-03, 9.61065991e-04,
          1.04326410e-02, 6.65996689e-03, -1.43043068e-03,
          -6.74352003e-03, -3.72578413e-03, 2.85668975e-05,
          -1.91450305e-02, -1.61426496e-02, 1.52065686e-03,
          5.65419359e-05, -7.52051966e-03, -6.63963705e-03,
          3.03066941e-03, 6.34788442e-03, 1.22697209e-03, 3.39856115e-03,
          6.74779946e-03, 3.95275420e-03, 2.59151930e-05,
          -4.64766799e-03, -3.60709126e-03, -4.49468382e-03,
          -1.43341469e-02, -1.36880511e-02, -1.37660152e-03,
          6.81222125e-04, -3.11642117e-03, -3.56312678e-03,
          2.64762971e-03, 7.76423467e-03, 6.15945878e-03, 3.10934102e-03,
          1.21613313e-03, -1.10923953e-03, -7.85676576e-03,
          -1.00652808e-02, -9.28752590e-03, -8.36633611e-03,
          -6.39520399e-03, -9.49520792e-04, -1.76114554e-03,
          4.73844819e-04, -6.02939806e-04, 3.80113808e-04,
          1.28791155e-03, 6.67853933e-03, 7.91590195e-03, 6.09449530e-03,
          7.89123029e-03, 6.96919975e-04, -3.70603451e-03,
          -8.38088337e-03, -5.45676425e-03, -6.77996641e-03,
          -1.65552814e-02, -1.80779155e-02, 4.04385990e-03,
          8.63929512e-04, -4.26826766e-03, -6.37795252e-04,
          6.74094167e-03, 1.10305594e-02, 8.53692647e-03, 7.16207875e-03,
          4.32832772e-03, -4.82446654e-03, -6.49411744e-03,
          -9.03191138e-03, -1.05664292e-02, -6.18969277e-03,
          -4.60739341e-03, -7.87742250e-03, 6.61481638e-04,
          6.80100406e-04, -6.30505732e-04, 4.96985065e-03,
          3.63235385e-03, 1.01940166e-02, 1.18187182e-02, 4.71370807e-03,
          3.61907599e-03, -5.10480488e-04, -4.71899891e-03,
          -4.43306006e-03, -5.42890560e-03, -5.57979196e-03,
          5.13633294e-03, 5.55817829e-03, 1.41942268e-03, 7.24988698e-04,
          -1.53554662e-03, -3.56341270e-03, -5.53742843e-03,
          2.81756744e-03, 5.99231059e-03, 2.01747334e-03,
          -7.47228973e-04, 1.12038186e-04, -3.25833960e-03,
          -1.82278978e-03, -6.27607945e-03, -3.47357942e-03,
          -1.86076981e-03, 6.74732029e-04, 1.96419819e-03,
          3.19784216e-04, -2.49078078e-03, -3.30637558e-03,
          -3.26662231e-03, 5.92960138e-03, 3.10935243e-03,
          4.65832558e-03, 3.60340439e-03, -6.28272013e-04,
          -4.93499218e-03, -3.25586018e-03, -5.79636870e-03,
          -6.86143001e-04, 4.25490923e-03, 5.03437733e-03,
          2.44479952e-03, 3.98913817e-03, 2.33000537e-04,
          -6.05959445e-04, 1.93285174e-04, 1.02409869e-02,
          7.33516505e-03, -5.55841252e-03, -9.52589046e-03,
          -6.21641707e-03, -4.16185055e-03, -8.44341703e-03,
          -7.82390218e-03, -4.76822024e-03, -4.14813636e-03,
          3.13118333e-03, -1.74730911e-03, -6.56863675e-03,
          -4.62864339e-03, 1.56197220e-03, -8.04835057e-04,
          3.43458843e-03, -1.00181799e-03, -8.79025087e-03,
          -4.02633986e-03, -4.72751260e-03, -3.32737737e-03,
          1.43604353e-03, -1.36621855e-03, 2.47397739e-03,
          6.50291843e-03, 8.03597923e-03, 7.89305381e-03,
          -1.14690256e-03, -5.22898370e-03, -6.16484601e-03,
          1.43482373e-03, 3.21558909e-03, -5.43514919e-03,
          -9.20641236e-03, -4.82341042e-03, -3.25469696e-03,
          -3.14143370e-03, 2.53452896e-03, 2.00229441e-03,
          8.55214708e-03, 1.65339764e-02, 1.74918380e-02, 8.05101171e-03,
          4.58035059e-03, 1.94026012e-04, -2.29391223e-03,
          2.81680981e-03, 8.82411841e-03, -6.19441923e-03,
          -1.27271786e-02, -1.14487996e-02, -8.31190776e-03,
          -3.61949741e-03, -4.21599485e-03, -5.77483559e-03,
          -1.06581813e-03, 2.97731743e-03, 3.52598261e-03,
          7.08678272e-04, -7.92970881e-03, -5.87375695e-03,
          -2.49351026e-04, -3.78157874e-03, -5.38563589e-03,
          -1.08974623e-02, -6.40060334e-03, -7.13506853e-03,
          -4.30701580e-03, -7.87876546e-03, -2.28521042e-03,
          -2.61224806e-03, 9.40265507e-03, 1.21479165e-02,
          1.19340979e-02, 8.05848278e-03, 5.86772617e-03,
          -6.86028088e-03, -7.93055445e-03, -3.61390854e-03,
          -1.15851336e-03, -7.71240843e-03, -1.34062422e-02,
          9.48008383e-04, -1.18694059e-03, -2.13900581e-03,
          -2.18751072e-03, 1.42497616e-03, 4.44434304e-03,
          8.15568119e-03, 1.14513496e-02, 3.17772664e-03, 5.72569622e-03,
          7.35453097e-04, -4.46241675e-03, -9.36779426e-04,
          6.83679711e-03, -1.01851383e-02, -1.09861428e-02,
          -1.41060271e-04, -4.79719369e-03, -3.21397348e-03,
          -3.39353993e-03, 5.61212772e-04, 4.20992589e-03,
          2.35776324e-03, 6.49291230e-03, 5.71399461e-03, 6.53389143e-03,
          -2.39132741e-03, -3.70475557e-03, -2.40033423e-03,
          -1.88743300e-03, -9.53481719e-03, -7.66261620e-03,
          -8.26366339e-03, -5.35196392e-03, -8.93312041e-03,
          -6.42347382e-03, -9.15398076e-03, 5.24855405e-03,
          7.85284117e-03, 2.78145936e-03, 7.28890160e-03, 8.96847527e-03,
          -2.46902648e-03, -9.45793092e-03, -2.71720835e-03,
          7.34022935e-04, -8.36929586e-03, -1.00496812e-02,
          -3.78213078e-03, -6.78790826e-03, 7.66394252e-04,
          -3.23407049e-03, 2.40659248e-03, 5.06748445e-03,
          4.09785239e-03, 3.97092756e-03, 8.27584229e-03, 1.21425828e-02,
          -2.45607225e-03, -4.32910956e-03, -3.49319610e-03,
          -6.43988315e-04, -9.11170151e-03, -8.83538462e-03,
          -2.37711333e-03, -4.50032717e-03, -5.29840309e-03,
          -4.80509968e-03, -3.89449997e-03, -2.06571678e-03,
          -2.34703417e-03, 2.28492171e-03, 4.61428054e-03,
          1.96975726e-03, -3.44319060e-03, -4.19965666e-03,
          -1.43451663e-03, -2.05483497e-03, -8.33216216e-03,
          -6.76879520e-03, 1.54706382e-03, -1.29862828e-03,
          -4.98024561e-03, -4.10105661e-03, -3.22547974e-03,
          -8.39510281e-03, -4.88999858e-03, -7.12375902e-03,
          -4.98762447e-03, -8.06267466e-03, -8.49006139e-03,
          -8.60193744e-03, -4.49487893e-03, 9.14378616e-04,
          -7.36636762e-03, -2.69566663e-03, -2.78320978e-03,
          -3.97021370e-03, 1.38806482e-03, -1.23948936e-04,
          2.08542077e-03, 2.58504297e-03, 4.44193278e-03, 7.77456956e-03,
          8.10789503e-03, 6.32463675e-03, -6.30224217e-03,
          -8.31816159e-03, -3.33832949e-03, 1.33369863e-03,
          -2.75386637e-03, 7.79075606e-04, 4.53713816e-03,
          2.94212423e-05, -8.09966237e-04, 8.49798089e-04,
          2.38123303e-03, -2.31976993e-03, -1.12417643e-03,
          3.99673684e-03, 3.92479170e-03, 5.44111989e-03,
          -7.65918149e-03, -6.87846029e-03, -3.93416593e-03,
          1.02310011e-03, -4.10631672e-03, 4.04694304e-03,
          5.56589663e-03, 2.72367289e-03, -4.79525566e-04,
          -2.70984368e-04, 3.83996870e-04, -6.96578063e-03,
          -1.68752065e-03, -9.33432661e-04, -1.24948891e-03,
          -4.16217663e-04, 7.13046582e-04, 2.33049504e-03,
          2.64523202e-03, 3.34325945e-03, 1.07899250e-03, 2.20252131e-03,
          -4.32332512e-03, -3.76246963e-03, -6.21108199e-03,
          -5.93218068e-03, -5.75301563e-03, -1.61830802e-02,
          -1.29811950e-02, -1.32399974e-02, -1.03303911e-02,
          -5.26225893e-03, -6.39130687e-03, 1.35737075e-03,
          -4.25665313e-03, -2.91473116e-03, 1.86406309e-03,
          9.16126184e-03, 5.79004269e-03, 3.53557407e-03, 3.48800124e-04,
          2.59743538e-03, 1.54287159e-03, -1.46702258e-03,
          2.62302556e-03, 3.74068320e-03, 7.24088168e-03, 8.27793125e-03,
          6.03214605e-03, 5.22610173e-03, 3.71032255e-03, 6.96021505e-03,
          8.02563038e-03, 1.30720437e-03, -2.42920429e-03,
          -4.22624126e-03, -9.23709199e-03, -7.77598657e-03,
          -4.48606303e-03, -1.26459589e-02, -1.15791941e-02,
          -1.14178900e-02, -8.06935783e-03, -4.67207469e-03,
          -1.53853919e-03, 2.97373859e-03, 1.56864559e-03,
          4.80126264e-03, 2.96248542e-03, 7.38880225e-03,
          -2.72346754e-03, -1.53318932e-03, -2.32607964e-03,
          -3.29339667e-03, -1.10083085e-03, -9.33714304e-03,
          -1.38359871e-02, -1.60505604e-02, -8.10886174e-03,
          3.36029800e-03, 4.80043609e-03, 5.23671275e-03, 1.59565022e-03,
          5.94745670e-03, 1.39445830e-02, 1.50368763e-02, 4.19986085e-04,
          -1.71200861e-03, -2.29325728e-04, -3.38815758e-03,
          -8.25681165e-03, -8.56936723e-03, -2.55875550e-02,
          -2.51450464e-02, -1.12567060e-02, -1.99260097e-03,
          9.78823099e-03, 7.44273514e-03, 3.47331446e-03, 5.20596514e-03,
          1.59533415e-02, 2.93015316e-03, -1.64910289e-03,
          -2.59234360e-03, -4.98615624e-03, -3.50672565e-03,
          1.99636794e-04, -4.32549044e-03, -2.56576878e-03,
          -6.51571807e-03, -2.65598786e-03, -2.74544489e-03,
          7.33229739e-04, 2.82569695e-03, 3.95979499e-03, 2.28639692e-03,
          8.11853446e-03, 1.11195212e-02, 3.72960768e-03, 1.56793988e-03,
          -3.40959872e-03, -3.44602554e-03, -5.34416782e-03,
          -1.72570755e-03, -1.52088031e-02, -1.25225643e-02,
          -3.61227966e-03, -5.41247707e-03, 5.14537387e-04,
          4.59946832e-03, 1.11206342e-02, 8.83627124e-03, 1.66370720e-02,
          1.34363156e-02, 2.96461303e-03, -6.76334254e-04,
          5.41167194e-03, 3.64622590e-03, -4.09042416e-03,
          -3.45835835e-03, -1.92543473e-02, -1.22061772e-02,
          -2.95116653e-04, -9.14198987e-04, 7.33871479e-03,
          1.17045650e-02, 7.16622220e-03, 6.48643496e-03, 1.43941706e-02,
          4.74944711e-03, -1.65251549e-03, -1.99970510e-03,
          1.99005124e-03, 6.78014418e-04, -2.18370999e-03,
          -1.23901023e-02, -2.03327015e-02, -2.22364292e-02,
          -6.12231251e-03, 8.53958831e-04, 7.52057554e-03,
          1.26023563e-02, 8.81617051e-03, 5.71437972e-03, 7.06164492e-03,
          1.29593816e-02, 4.49966080e-03, 1.61870720e-03, 5.20270900e-04,
          2.99927127e-03, -8.19804380e-04, -1.63756995e-04,
          -1.37097267e-02, -1.05662011e-02, 5.02369693e-03,
          2.18923949e-03, 4.83444380e-03, 1.03536472e-02, 1.27622122e-02,
          8.07319582e-03, 1.19252084e-02, 9.02153272e-03,
          -2.60527420e-04, 1.36867131e-03, 4.97432938e-03,
          4.58775600e-03, -2.37628073e-03, -1.52352806e-02,
          -1.29903294e-02, -1.38941081e-02, 5.05019585e-03,
          5.09122526e-03, 1.25183016e-02, 1.61328353e-02, 1.11244926e-02,
          3.56636988e-03, 7.87877198e-03, 8.14735610e-03, 3.98134161e-03,
          4.76768473e-03, 7.78236950e-04, 2.08345754e-03, 5.59078937e-04,
          -8.83917417e-03, -1.64622199e-02, -1.77604444e-02,
          -5.88368345e-03, 1.08612736e-03, 6.29605539e-03,
          1.09704165e-02, 1.00404797e-02, 9.44906194e-03, 9.44632571e-03,
          1.47765204e-02, 7.52217835e-03, 5.02741477e-03, 2.13064090e-03,
          1.21729134e-03, 9.69551271e-04, -6.46250509e-03,
          -2.37465482e-02, -2.44480800e-02, -1.77806849e-03,
          2.29951460e-03, 5.52636944e-03, 1.85899599e-03, 7.80104380e-03,
          1.21677546e-02, 1.69203449e-02, 4.86320537e-03, 1.50848785e-03,
          7.76426896e-06, -9.28146008e-04, 1.60138635e-03,
          -2.66813058e-05, -9.95882787e-03, -5.53752761e-03,
          -2.89652566e-03, 2.94925575e-03, 3.53232771e-03,
          9.51289665e-03, 8.75260308e-03, 5.62258670e-03, 3.91648849e-03,
          4.70556598e-03, 1.67003507e-03, -2.19915714e-03,
          -5.28341345e-03, -3.82823218e-03, -2.37353379e-03,
          -1.77982298e-03, -6.79132156e-03, -7.91050028e-03,
          -8.41872394e-03, 3.27941705e-03, 9.98938922e-04,
          1.27755967e-03, -8.01476184e-04, -2.12822319e-03,
          -5.51310834e-04, 3.07986839e-03, 7.94529263e-03,
          5.10038948e-03, 3.58385569e-03, 3.78389657e-03,
          -4.24649770e-05, -2.42236303e-03, -7.47855520e-03,
          -1.19411340e-02, -8.56424030e-03, 6.44966212e-06,
          4.16267617e-03, 6.91301608e-03, 2.28379504e-03, 4.42243321e-03,
          9.73966345e-03, 1.31751932e-02, 6.46567903e-04, 2.74825003e-03,
          2.95386859e-03, -1.18730895e-04, 1.03009108e-03,
          -3.30342300e-04, -4.33001388e-03, -1.57542247e-03,
          6.55063801e-03, 1.35112146e-03, 4.04293882e-03, 5.41235181e-03,
          4.54644673e-03, 6.76491112e-03, 9.67218168e-03, 4.37458558e-03,
          -7.31464243e-03, -6.98883319e-03, -4.24665213e-03,
          -2.04769941e-03, -4.46612481e-03, -7.47516379e-03,
          -1.07581625e-02, -1.61986472e-03, 5.10570314e-03,
          3.21107754e-03, 3.75315920e-03, -1.81275280e-03,
          -4.86032758e-03, -5.22265676e-03, -4.19380562e-03,
          -4.78143804e-03, -1.72092132e-02, -1.00220572e-02,
          -5.51078329e-03, -1.15521681e-02, -1.59553047e-02,
          -1.21416850e-02, -1.65200178e-02, -3.25092609e-04,
          1.19470281e-03, -2.33798451e-03, -1.32662395e-03,
          -8.74490943e-03, -5.62026026e-03, -3.70734395e-03,
          -5.08057419e-03, -1.30097568e-02, 2.46147683e-04,
          7.39536667e-03, 5.58882346e-03, 3.49745923e-03, 5.24375448e-03,
          -3.78180353e-04, 2.38993624e-03, -2.41660583e-03,
          1.93977336e-04, 1.41325232e-03, 2.97737122e-03, 5.12536941e-03,
          5.47092315e-03, 4.74161981e-03, 7.05061527e-03, 8.52457073e-04,
          -3.93784232e-03, 2.23695673e-03, 4.03996557e-03,
          -1.12136465e-03, 3.50782444e-04, -1.48288941e-03,
          2.73428252e-03, 7.12462189e-03, 5.70606627e-03, 6.81458332e-04,
          1.75289088e-03, 6.72219880e-03, 4.25881427e-03, 2.03149952e-03,
          4.60315263e-03, -2.44936510e-03, -1.19934976e-02,
          -2.82502454e-03, -7.97946064e-04, -9.32135154e-03,
          -6.09262194e-03, -6.47911290e-03, -1.32157821e-02,
          -1.91253773e-03, 3.16996709e-04, -4.68740892e-03,
          2.34857453e-05, -5.32123819e-03, -5.31372323e-04,
          -2.06467835e-03, -4.30040294e-03, -8.56230967e-03,
          -9.76336095e-03, -1.37210381e-03, -1.76311238e-03,
          -6.23388123e-03, -3.01391375e-03, -4.26450884e-03,
          -1.03829904e-02, 2.32809898e-03, 4.28816536e-03,
          -1.44964922e-03, 5.43523300e-03, 2.86643510e-03,
          3.82482167e-03, -1.00390946e-06, -5.44844603e-04,
          -6.20446214e-03, -5.81394881e-03, -2.57844105e-03,
          -6.02630840e-04, -3.74766905e-03, -3.02178296e-03,
          -7.88476504e-03, -7.04357028e-03, 1.19015272e-03,
          8.36289895e-04, -5.44975605e-03, 1.68357126e-03,
          5.30212699e-03, 2.66847620e-03, 1.41162041e-03, 2.49869237e-03,
          -5.21685416e-03, -3.33829504e-03, 2.13156664e-03,
          4.32978896e-03, 1.71353039e-03, 8.92614364e-04,
          -2.48440262e-03, -3.48302512e-03, -2.49308185e-03,
          2.89385929e-03, 1.65903103e-03, 9.87884123e-03, 6.83417730e-03,
          4.43488499e-03, 3.20809428e-03, 4.38550720e-03,
          -5.54648170e-04, -5.28259575e-03, -2.17270642e-03,
          -1.27630890e-03, -5.05363988e-03, -3.92276887e-03,
          -6.82548108e-03, -1.27159441e-02, 2.30235071e-03,
          -1.23112171e-03, -7.00321933e-03, 3.86254373e-03,
          2.23552343e-03, 1.59980974e-03, 2.01105629e-03, 4.05143201e-03,
          -2.64269300e-03, -3.32183973e-03, 5.46546187e-04,
          2.74769543e-03, 4.84307297e-04, 6.55971060e-04,
          -2.95983837e-03, -3.20915692e-03, -4.46064892e-04,
          7.92622939e-03, -6.09432114e-03, 4.03872645e-03,
          1.91958272e-03, 1.03339355e-03, 1.26338808e-03, 1.19492889e-03,
          -3.86227760e-03, -4.23266232e-04, 2.24181265e-03,
          -1.29793398e-03, -2.65775877e-03, 3.79166496e-03,
          1.22113470e-02, 3.24719958e-02, -5.85017202e-04,
          -1.52432071e-02, 4.39881813e-03, 3.13822809e-03,
          2.15396914e-03, 3.65680107e-03, 1.07450481e-03,
          -6.32110052e-04, -2.72316928e-03, -1.65361864e-03,
          8.88694485e-04, -2.58301245e-03, -2.16343487e-03,
          2.31783697e-03, 6.14119042e-03, 2.59833504e-02,
          -4.25841613e-03, -1.78018659e-02, 9.08264704e-03,
          4.30672290e-03, 2.97396793e-03, 1.49475341e-03, 5.44536044e-04,
          -9.62739461e-04, -3.56226834e-03, 3.80501988e-05,
          2.23952811e-03, -1.71981286e-04, -8.85468500e-04,
          2.39655981e-03, 1.10207349e-02, 2.61604637e-02,
          -1.42133748e-03, -1.17402645e-02, 3.19445017e-03,
          6.06639730e-03, 4.07624617e-03, 3.91297741e-03,
          -8.28110555e-04, -1.18641485e-03, 1.04028208e-03,
          -4.22732346e-03, 2.25840067e-03, 6.34284341e-04,
          1.68962381e-03, 2.65754387e-03, 5.65685844e-03, 2.05866788e-02,
          -3.59244552e-03, -1.62165202e-02, 1.06443623e-02,
          5.71832759e-03, 5.00509609e-03, 2.13978533e-03,
          -8.50183715e-04, -1.44121831e-03, -5.00140339e-03,
          -2.08853860e-03, 8.41560948e-04, -1.84452813e-03,
          -3.15422006e-03, 4.14621364e-03, 3.07210465e-03,
          2.02512275e-02, -1.08270133e-02, -1.59380082e-02,
          8.64025299e-03, 2.74905423e-03, 3.36567475e-03,
          -1.90000399e-03, 1.59793848e-03, -1.08930189e-03,
          -2.55938922e-03, -4.31134086e-03, 8.53242527e-05,
          -1.31666393e-03, -7.69080454e-03, -7.54472043e-04,
          -1.64137303e-03, 6.24902034e-03, 1.91043830e-03,
          -3.05137993e-03, 4.34498861e-03, 2.28503044e-03,
          9.84494807e-04, -8.88079230e-04, 3.56209814e-03,
          1.99530553e-03, -3.33306636e-03, -4.74663032e-03,
          2.97248713e-03, 5.25626354e-04, -7.43474695e-04,
          4.06115782e-03, 4.09699325e-03, 1.98020078e-02,
          -5.81497187e-03, -1.05294539e-02, 9.24342033e-03,
          -1.68280513e-03, 4.10291646e-03, 1.80525487e-04,
          3.71040340e-04, -1.31521246e-03, -6.80474704e-03,
          -6.96722139e-03, -2.73727346e-03, -7.49224389e-04,
          -6.22404274e-03, -4.13304195e-03, -4.29242197e-03,
          2.58943439e-03, 6.29253394e-04, -5.54713071e-04,
          8.58500693e-03, 4.21262201e-04, 6.53645839e-04,
          -2.46618316e-03, -5.76170220e-04, -2.35639350e-03,
          -9.36785527e-03, -2.58661131e-03, 5.39227901e-03,
          2.08806526e-03, -7.20289350e-03, -8.26090202e-03,
          -9.86376684e-03, 2.72703823e-03, 2.90570688e-03,
          6.04439701e-04, 1.90946541e-03, -1.33133191e-03,
          -2.73211533e-03, -5.97795763e-04, 4.07288782e-03,
          2.85839639e-03, -4.64562932e-03, 2.55688676e-03,
          1.23143820e-02, 8.23501218e-03, -5.07831480e-03,
          -9.04957484e-03, -9.61489696e-03, 4.94476082e-03,
          -7.81484228e-03, -7.79845333e-03, 9.21061914e-03,
          6.11433666e-03, -7.78810820e-04, 2.36547622e-03,
          7.05854362e-03, 7.84712099e-03, -9.65937681e-04,
          -7.46388687e-03, -1.80417614e-04, 1.71190826e-03,
          -4.02087299e-03, -7.20613543e-03, -1.06949946e-02,
          1.31338416e-03, -7.19481800e-03, -1.43933704e-03,
          5.95701020e-03, 7.39340263e-04, 8.27713578e-04,
          -1.87470880e-03, 2.26889993e-03, 2.97645922e-04,
          -1.41738262e-02, -1.39005911e-02, 6.84832572e-04,
          -1.02205850e-04, -2.29488034e-03, -6.81470195e-03,
          -6.49472652e-03, 1.11968769e-02, -6.75238809e-03,
          -3.95699218e-03, 1.20907007e-02, 1.14123980e-02,
          3.96617717e-04, 1.92567008e-03, 2.49941438e-03, 3.80187084e-05,
          -1.45946294e-02, 9.26643703e-03, 4.62086033e-03,
          7.35405483e-04, -6.22625742e-03, -7.11278524e-03,
          -8.06611311e-03, -4.47334908e-03, -7.20677571e-03,
          -7.47707812e-03, 8.76301061e-03, 6.99395360e-03,
          1.57524715e-03, 5.19323628e-03, 7.87635520e-03, 1.02686891e-02,
          1.09199472e-02, 7.24327890e-03, 5.06563438e-03,
          -1.81729288e-03, -5.65095060e-03, -7.40265986e-03,
          -1.36528015e-02, -3.45699955e-03, -1.59278500e-03,
          -1.14888513e-04, 9.60148964e-03, 7.92815350e-03,
          2.90025747e-03, 7.54459808e-03, 8.15063436e-03, 1.05028683e-02,
          1.27813704e-02, -1.00884261e-02, -3.10275867e-03,
          -5.98807400e-03, -2.64489441e-03, -5.95250679e-03,
          -7.19169620e-03, 2.36602523e-03, -1.99306849e-03,
          4.26625229e-05, 8.93388689e-03, 6.56011421e-03, 3.85273807e-03,
          6.36206754e-03, 2.09014234e-03, 8.58913409e-04,
          -8.03013332e-03, -1.59686077e-02, -8.34764726e-03,
          -8.41960963e-03, -7.03471154e-03, -7.59536680e-03,
          -9.73002147e-03, 4.43743309e-03, 5.20824408e-03,
          5.51725179e-03, 9.07060876e-03, 3.62120965e-03, 1.86199113e-03,
          4.16354509e-03, -2.48863082e-03, -2.82016626e-05,
          -9.70189087e-03, -1.93935982e-03, 3.38712661e-03,
          -4.62892407e-04, -3.71691817e-03, -2.59855459e-03,
          -4.88167582e-03, 2.81926547e-03, 1.07301548e-02,
          1.25917159e-02, 6.46913797e-03, 5.81329316e-03, 1.38776912e-03,
          2.45414762e-04, -4.97050874e-04, 7.60024739e-03,
          -2.04098658e-04, -6.52287807e-03, -1.68894988e-03,
          -5.40171983e-03, -9.92450630e-04, -4.53941431e-03,
          -4.37727105e-03, -6.67823188e-04, 3.81484814e-03,
          5.32087637e-03, 6.50998612e-04, -2.74790707e-03,
          -5.41788246e-03, -1.55821710e-03, 2.19477341e-03,
          7.23720808e-03, -4.79734084e-03, -1.82085373e-02,
          -7.24465027e-03, -5.42639801e-03, -5.27824834e-03,
          4.81737166e-04, -7.44426041e-04, 7.17231818e-03,
          7.93564878e-03, 1.18055753e-02, 8.42107832e-03, 6.82340935e-03,
          -2.79858243e-03, -3.80543480e-03, -3.83149413e-03,
          -1.31487194e-03, -1.54411830e-02, -1.54195875e-02,
          -5.92871662e-03, -7.59441173e-03, -1.75963924e-03,
          3.03939363e-04, -3.81146860e-03, 6.78762852e-04,
          8.45365319e-03, 8.22201371e-03, -9.12559335e-04,
          -1.83819517e-04, -4.70271055e-03, -5.52883977e-03,
          -2.79377960e-03, 1.88021967e-03, -1.44875841e-02,
          -9.28495545e-03, -5.76498825e-03, -8.84585083e-03,
          -3.09963152e-03, -3.41824186e-03, -1.70759356e-03,
          2.53889314e-03, 5.81302261e-03, 6.41908823e-03,
          -1.43978093e-03, -6.69541489e-03, -8.23463406e-03,
          -3.62379989e-03, -1.81144325e-03, -4.20401666e-05,
          -5.65541862e-03, -6.18189760e-03, -5.42571861e-03,
          -6.02008449e-03, -4.72332677e-03, -2.00296589e-03,
          -3.49963550e-03, 1.12272920e-02, 1.11539615e-02,
          1.12874107e-02, 5.69899753e-03, 2.80613988e-03,
          -4.42047184e-03, -4.95649129e-03, -3.44752613e-03,
          -3.30173573e-03, -8.25110171e-03, -1.17271654e-02,
          -8.89856741e-03, -9.11027752e-03, -4.10232879e-03,
          -3.64899938e-03, -1.58267666e-03, 2.52428814e-04,
          1.48599688e-02, 1.17628425e-02, -6.29721396e-03,
          -6.90889731e-03, -6.72692340e-03, -7.65791070e-03,
          -5.78778284e-03, -4.87216748e-04, -1.05675617e-02,
          -1.10070724e-02, -3.23632802e-03, -5.53838024e-03,
          -3.83196445e-03, -2.26900959e-03, -4.54578985e-04,
          5.95455104e-03, 1.70393325e-02, 1.78479664e-02, 1.76633697e-03,
          1.09180692e-03, -1.39069441e-03, -1.38675270e-03,
          -2.41794134e-03, 5.70345088e-04, -5.00475522e-03,
          -1.13339806e-02, -3.87025205e-03, -3.30721145e-03,
          -4.97800810e-03, -2.67085200e-03, -2.77687958e-03,
          7.25731626e-03, 7.19345454e-03, 4.30014869e-03, 3.81969218e-03,
          3.96469655e-03, -5.70326997e-03, -7.85574690e-03,
          -1.77484623e-03, -4.25957097e-03, -1.08823571e-02,
          -1.55953122e-02, -1.69280590e-03, -2.28533405e-03,
          2.29868875e-03, 6.83344668e-04, 7.90616870e-03, 4.22887132e-03,
          5.67588082e-04, -1.93927810e-03, 2.54148105e-03,
          3.90445930e-03, -9.98945720e-03, -7.21088285e-03,
          -5.97133674e-03, -6.44456269e-03, -1.13522382e-02,
          -5.86477900e-03, -2.91740114e-04, -2.29766220e-03,
          -3.04353237e-03, -2.37231329e-03, -1.20571384e-03,
          3.52488691e-03, 1.13542499e-02, 1.13061136e-02,
          -9.07547830e-04, 1.30601006e-03, -1.58489298e-03,
          -3.10044969e-03, -2.35071711e-04, 9.25668166e-04,
          -4.98345075e-03, -1.10079860e-02, 1.77221850e-03,
          1.17477647e-03, 2.59830942e-03, -1.20665645e-03,
          6.62673311e-03, 8.48591793e-04, 7.76000693e-03, 7.54670287e-03,
          1.34335528e-03, 1.75897774e-04, -7.36761373e-03,
          -4.36876668e-03, -4.42281086e-03, -1.96209690e-03,
          -7.69677013e-03, -1.01625053e-02, -8.67058334e-05,
          -3.25551257e-04, 1.81792467e-03, 1.03883003e-03,
          7.53614819e-03, 4.48571192e-03, 9.80863464e-04, 1.61985680e-03,
          1.03844528e-03, 3.29864537e-03, -7.31846085e-03,
          -1.11910906e-02, -9.86083969e-03, -2.44621234e-03,
          -9.93400533e-03, -6.53192354e-03, 2.08378490e-03,
          7.35243026e-04, -3.90103576e-03, -6.35036966e-03,
          2.15077237e-03, 1.52199087e-03, -1.24191353e-03,
          3.73677956e-03, 4.07314533e-03, 3.99375567e-03,
          -1.15989866e-02, -1.33551797e-02, -4.37171850e-03,
          -3.62467807e-04, -7.18022417e-03, -1.26481075e-02,
          -6.56219490e-04, 1.88701251e-03, 3.37606389e-03,
          7.47963903e-04, 9.57440026e-03, 9.28184763e-03, 7.64492666e-03,
          8.49593896e-03, 2.47891317e-03, -1.95740792e-03,
          -7.10424175e-03, -7.33068679e-03, -5.96431084e-03,
          -2.34379526e-03, -9.14239418e-03, -1.43765016e-02,
          -1.61711406e-03, -2.75754399e-04, -3.40051018e-03,
          -4.91416641e-03, 8.33078939e-03, 6.91486336e-03,
          2.41122721e-03, 6.27268991e-03, 5.22361416e-03, 4.75303736e-03,
          -1.12426607e-02, -1.85162257e-02, -6.12639496e-03,
          -5.37948171e-03, -1.32105360e-02, 4.32117376e-03,
          4.15623561e-03, 4.54751169e-03, -2.26492574e-03,
          -1.10839668e-03, 1.20953983e-03, -1.45807723e-03,
          -1.34683901e-03, 6.15165278e-04, 6.10645534e-03,
          5.10454690e-03, -1.08378357e-03, -3.40024685e-03,
          2.37411377e-03, 5.83528960e-03, 5.72943920e-03,
          -2.77530774e-03, -1.31231803e-03, 2.38927401e-04,
          -6.76561147e-03, -6.92872796e-03, -6.08060788e-03,
          -9.67101939e-03, -1.33606354e-02, -1.30562894e-02,
          -4.74132085e-03, -7.88650475e-03, -9.14953277e-03,
          -2.73352419e-03, 4.25964734e-03, 6.00395398e-03,
          1.45479257e-03, -2.11033947e-03, 2.65568192e-03,
          2.03124364e-03, -5.01942076e-03, -2.12181685e-03,
          7.19011668e-03, 2.97633093e-03, 5.33703249e-03, 8.26731231e-03,
          7.16189388e-03, 2.65432615e-03, -5.12977364e-03,
          -8.92021321e-03, 9.16178396e-04, 5.94666344e-04,
          1.64935307e-03, -1.37068750e-03, -1.04532837e-05,
          5.19272778e-03, -3.38301458e-03, -1.77672529e-03,
          2.89279316e-03, -2.26233387e-04, -2.91348761e-03,
          -8.94434634e-04, 2.98820366e-03, -2.46842485e-03,
          -9.11513809e-03, -7.20903184e-03, 1.74897676e-03,
          6.57685241e-03, -9.96733506e-05, 8.89027666e-04,
          -1.32212404e-03, -1.76896097e-03, -3.94559652e-03,
          -3.33642540e-03, -4.47981618e-03, -2.50710943e-03,
          -7.29021151e-04, 1.99375930e-03, 5.12693077e-03,
          -5.39563550e-03, -6.60255412e-03, -1.11692143e-03,
          5.90311084e-03, 2.27111951e-03, 2.23133736e-03, 6.54572435e-03,
          5.11812454e-04, -2.62134185e-04, -3.68065131e-03,
          -4.14118217e-03, -5.99921355e-03, -1.60692143e-03,
          -1.43607082e-02, -1.20488675e-02, -5.31566469e-03,
          -4.19556489e-03, -2.41521071e-03, 1.33544765e-03,
          8.10481701e-03, 2.95453332e-03, 6.09759428e-03, 3.58133647e-03,
          2.62904586e-03, 4.23156749e-03, 2.38805567e-03, 1.15634152e-03,
          3.10424506e-03, 2.68444419e-03, 3.97743098e-03, 3.77515913e-03,
          8.21894594e-03, 2.70153699e-03, -2.27981992e-03,
          -2.46026949e-03, 1.61477178e-03, 3.76517884e-03,
          1.20804925e-03, 5.07382816e-03, 5.93948644e-03, 2.02942220e-03,
          1.94464799e-03, 2.03827652e-03, -1.35590916e-03,
          -2.43805582e-03, -1.00294147e-02, -7.98221678e-03,
          -5.67461224e-03, 1.47116414e-04, -2.75418139e-03,
          -1.95919652e-03, 3.66910594e-03, 1.30422204e-03,
          1.56263472e-03, 1.41014876e-02, 4.97216592e-03, 2.58532679e-03,
          -3.29306844e-04, 2.22409912e-03, -3.03742418e-04,
          1.81996741e-03, -9.34901834e-03, -4.82737506e-03,
          -8.25717812e-04, 3.67278117e-03, 4.66617011e-03,
          5.81090758e-03, 8.03995226e-03, 4.42812126e-03, 1.12916324e-02,
          5.59932133e-03, 3.79072293e-03, 4.13206918e-03, 3.41001293e-03,
          3.85880907e-04, -1.53715094e-03, -1.16818184e-02,
          -1.29567664e-02, -1.31986775e-02, -4.50700428e-03,
          1.34784728e-03, 1.04766525e-02, 8.38335883e-03, 1.07290980e-04,
          -5.80856809e-04, 5.12654055e-03, 1.25731295e-02,
          5.45343338e-03, 3.37158260e-03, 9.57703404e-03, 7.82611035e-03,
          1.51836080e-03, 1.40824530e-03, -5.34176361e-03,
          -6.74908003e-03, -4.39902488e-03, 2.59942818e-03,
          7.26072211e-03, 3.09337140e-03, 7.57157058e-03, 6.98921084e-03,
          1.19114602e-02, 5.29874815e-03, 1.35217083e-03, 1.56534056e-03,
          5.32506453e-03, 2.47499137e-03, 2.42317724e-03, 8.43236165e-04,
          -8.72394349e-03, -9.34624020e-03, -1.12157818e-02,
          -1.21738645e-03, 7.05716200e-03, 5.30477334e-03,
          8.77687824e-04, 5.59382665e-04, 1.24631554e-03, 4.75465204e-04,
          3.34605994e-03, -1.14955066e-03, -1.18747854e-03,
          -2.38863146e-03, -4.99338517e-03, -1.03626437e-02,
          -2.47937860e-03, 4.71564615e-03, -4.51659039e-03,
          1.41625048e-03, 7.72462087e-03, 7.32159708e-03,
          -8.90405325e-04, 1.03556807e-03, 3.13333439e-04,
          -2.69899331e-03, -9.85883176e-04, -6.52470207e-03,
          -1.95555063e-03, -3.40024079e-03, -5.48729254e-03,
          -8.87964200e-03, -6.74746349e-04, 2.50388519e-03,
          -4.18242952e-03, 2.74828326e-05, 4.39174983e-05,
          2.11521750e-03, -5.46023389e-03, -1.96885969e-03,
          -4.73023253e-03, 3.39813600e-03, 3.49804689e-03,
          -5.18113899e-04, 2.96372385e-03, 4.41192009e-04,
          -1.13980600e-03, -2.45315116e-03, 7.78106507e-03,
          5.36090229e-03, -4.67563188e-03, 2.69506150e-03,
          5.10195969e-03, 8.09653942e-03, 1.18173030e-03, 2.89436430e-03,
          -1.59573590e-03, -6.35976158e-03, -5.82401175e-04,
          -3.67165823e-03, -9.43552935e-04, -4.87411453e-04,
          -7.24301906e-04, -6.70048967e-03, 4.86326497e-03,
          3.22115025e-03, -7.69759947e-03, -3.34253465e-03,
          -3.57924239e-03, 1.17582083e-03, -3.71463480e-03,
          -5.59559651e-03, -1.06766280e-02, -1.22948410e-02,
          -6.78381184e-03, -5.00717480e-03, -1.44859892e-03,
          -2.48195045e-03, -6.72407821e-03, -1.18877580e-02,
          1.33977020e-02, 1.89013053e-02, -1.21181726e-03,
          1.54938234e-03, -4.51151654e-03, -2.94051715e-03,
          -5.77269401e-03, -7.24523701e-03, -1.03333183e-02,
          -1.94259565e-02, -1.07374284e-02, -3.49821569e-03,
          -1.12097804e-02, -1.34540638e-02, -1.02944188e-02,
          -1.74403153e-02, 1.27895800e-02, 1.60931069e-02,
          -9.23562737e-04, 1.73823524e-03, -6.07836386e-03,
          -3.61326966e-03, -3.89388832e-03, -7.64206285e-03,
          -1.86736584e-02, -1.48926042e-02, -5.62306168e-03,
          -3.42216366e-03, -1.86363840e-03, -2.38075707e-04,
          -4.78066358e-04, -5.34530589e-03, 1.92740299e-02,
          2.15764903e-02, -3.86538915e-03, -5.74528240e-03,
          -4.68034437e-03, -2.58081197e-03, -6.57653809e-03,
          -1.32350344e-02, -1.48340771e-02, -2.42988337e-02,
          -1.00618154e-02, -3.90713941e-03, -6.40041707e-03,
          -3.61794955e-03, -3.42488685e-03, -1.43167339e-02,
          1.76842008e-02, 1.53093068e-02, -2.34254636e-04,
          -3.54087935e-03, -6.38516294e-03, -1.84633734e-03,
          -5.38320513e-03, -1.47681879e-02, -2.44580656e-02,
          -1.46343643e-02, -4.64503653e-03, -1.58836623e-03,
          -1.05812773e-02, -1.05511853e-02, -8.13651830e-03,
          -1.84392054e-02, 2.74628960e-03, 7.42627168e-03,
          -2.43109697e-03, 1.84923760e-03, -1.24539982e-03,
          1.28447160e-03, 5.44860435e-04, -4.62516584e-03,
          -1.20383743e-02, -7.27213826e-03, -2.32349616e-03,
          -2.39579333e-03, -5.24793472e-03, -5.19418856e-03,
          -4.12593270e-03, -1.14481635e-02, 7.53044803e-03,
          1.05071878e-02, 2.03675847e-03, 4.64792782e-03, 4.22401074e-03,
          2.77292007e-03, 1.83579186e-03, 3.39806953e-04,
          -3.65064433e-03, -2.00602934e-02, -7.12845474e-03,
          -2.63400562e-03, -9.23229940e-03, -9.45006404e-03,
          -6.92772027e-03, -1.90309882e-02, 1.08819026e-02,
          7.08528887e-03, -1.29036547e-03, 3.37404781e-05,
          -1.16668758e-03, 2.06239335e-03, -5.26159012e-04,
          -1.04532866e-02, -1.99852418e-02, -1.11247301e-02,
          -6.18130248e-03, -1.25215109e-03, -1.03121263e-03,
          -1.67925225e-03, -2.44284142e-03, -7.94980023e-03,
          8.77117831e-03, 1.42083121e-02, -2.66325404e-03,
          3.46652989e-04, 2.98477244e-03, 2.09982251e-03, 1.24453881e-03,
          -6.37000799e-03, -1.05980784e-02, -5.17397095e-03,
          -2.09606066e-03, -7.26224273e-04, -2.39611673e-03,
          -3.24609736e-03, -3.26060853e-03, -6.71618478e-03,
          3.76800098e-03, 2.72673002e-04, -5.40851709e-03,
          1.63019157e-03, 1.06241892e-03, 9.87742795e-04, 2.05765665e-03,
          1.45778328e-03, -1.29166036e-03, -4.20789560e-03,
          -5.88594470e-04, 5.10129379e-04, 8.89106188e-04,
          2.70466466e-04, 3.36661557e-04, 3.60745558e-04, 7.60617666e-03,
          5.86314127e-03, 1.81040785e-04, 1.80820981e-03,
          -3.01542052e-04, -8.50902463e-04, 2.50436191e-04,
          5.70490141e-04, -4.12784657e-03, -1.42475739e-02,
          -1.05934339e-02, -2.47228937e-03, -2.80327338e-04,
          -7.01110053e-04, -3.57583375e-03, -4.77334205e-03,
          7.26527302e-03, 3.55310296e-03, -9.75191593e-03,
          -2.29631085e-03, -2.72132875e-03, -2.94718193e-03,
          -7.08747655e-04, -7.06576416e-03, -1.23804957e-02,
          -1.29767591e-02, -9.05430689e-03, -4.59047407e-03,
          9.09490162e-04, -2.43856615e-04, 1.81919220e-03,
          2.73128762e-03, 1.04070501e-02, 6.99796295e-03, 2.83804093e-03,
          -5.01460221e-04, -4.74655908e-03, -4.62510763e-03,
          -4.12403699e-03, -3.87530890e-03, -1.06135504e-02,
          7.32944463e-04, 1.42593123e-03, -2.28872159e-05,
          3.29632894e-04, 2.22464884e-03, 8.62123817e-03, 1.48495799e-02,
          2.68506818e-04, -9.66453739e-03, -1.30405289e-03,
          -3.38958751e-04, 9.37498349e-04, 1.71951787e-03,
          -3.72249371e-04, -1.19501946e-03, 7.18918396e-04,
          -3.97771224e-03, 1.05669466e-03, 1.25184562e-03,
          1.18511985e-03, 3.54913273e-03, 1.40049902e-03, 9.99255758e-03,
          2.13591894e-03, -1.23100327e-02, 6.57893438e-03,
          1.83394318e-03, 1.36121537e-03, 1.39099278e-03,
          -2.52849399e-03, -3.50957271e-03, -3.31143104e-03,
          2.21973448e-03, 1.26046210e-03, 2.00246205e-03, 3.12965822e-05,
          1.23050215e-03, 1.69900479e-03, 5.98208560e-03,
          -2.27164928e-04, -3.32125323e-03, -4.34336904e-03,
          -2.75937398e-03, -2.74705468e-03, -3.43824031e-05,
          -2.56235618e-03, -1.56314042e-03, -1.66796334e-03,
          4.83546080e-03, 3.77696031e-03, 3.36653017e-03, 2.54341518e-04,
          1.87364337e-03, 3.53343901e-04, 6.85640005e-03, 2.62595387e-03,
          -7.41144083e-03, 5.29437698e-03, 2.51789368e-03,
          1.90525269e-03, 8.28577438e-04, -4.65156510e-03,
          -3.59947910e-03, 6.12254662e-04, -3.89383407e-03,
          1.11213571e-03, 1.91941473e-03, 3.24146613e-03, 7.90576823e-03,
          3.79898050e-03, 1.29674962e-02, 1.62946747e-03,
          -3.08404467e-03, 6.00618031e-03, -1.74792169e-03,
          -1.73570632e-04, -6.52732677e-04, -2.04038364e-03,
          -4.23655147e-03, -3.47625627e-03, -4.06445982e-03,
          -3.03694163e-03, -4.46137070e-04, -6.31671748e-04,
          1.26352662e-03, 8.54987826e-04, 5.46720484e-03, 5.74672315e-03,
          1.93360320e-03, 8.77256598e-03, -1.38418679e-03,
          -5.93315519e-04, -1.23956846e-03, -3.01854778e-03,
          -4.24910011e-03, -5.48922131e-03, -7.21215620e-04,
          7.38548581e-04, -2.02764641e-03, -6.78932713e-03,
          -1.81831850e-03, -5.33254305e-03, 7.68260891e-03,
          5.02517854e-04, -2.35545973e-04, 6.42895605e-03,
          1.76943443e-03, 3.90407024e-03, -1.37739570e-03,
          -1.50262518e-03, -3.09713907e-03, 3.76930996e-03,
          -7.39811687e-03, -6.89308206e-03, -5.48877474e-03,
          -9.29034315e-03, -6.56016637e-03, -1.01230750e-02,
          3.07475457e-05, 8.12969357e-03, 5.79871470e-03, 1.18330922e-02,
          1.52111601e-03, 5.37877437e-03, 3.00448691e-03, 1.32085115e-03,
          6.43621956e-04, 2.69131782e-03, -4.42356803e-03,
          -7.13090063e-04, 9.91292880e-04, -3.79789388e-03,
          -3.83902201e-03, -3.66491545e-03, 2.57217116e-03,
          6.50819042e-04, 9.60781937e-04, 5.59501071e-03,
          -1.08642317e-03, 7.30576750e-04, -2.69501493e-03,
          -3.13253934e-03, -3.22133786e-07, -7.08243577e-03,
          -8.10391735e-03, 1.47838538e-04, -5.12883486e-03,
          -3.00103379e-03, 2.63247197e-03, 3.39560024e-03,
          1.05338497e-02, 3.32876411e-03, 3.40949773e-04, 8.29217304e-03,
          6.88744849e-03, 2.35924104e-04, -2.67791678e-03,
          1.41908752e-03, 1.96281984e-03, -1.36707546e-02,
          -4.17390140e-03, -2.86553195e-03, -4.55356902e-03,
          -9.06741712e-03, -1.02217793e-02, -8.06928892e-03,
          3.59802600e-03, 3.54377716e-03, 1.16495159e-03, 7.54972082e-03,
          -1.85871474e-03, 1.87115895e-03, 1.63004035e-03,
          -2.25377642e-03, 2.82226945e-03, 1.79546885e-03,
          -1.05938958e-02, -2.77227722e-03, -2.25256570e-03,
          -3.19695566e-03, -7.61540548e-04, -1.28997688e-03,
          8.26262217e-03, 2.40092073e-03, -3.32158222e-03,
          6.69803796e-03, 8.71161639e-04, -4.29249019e-04,
          -6.64781430e-04, 1.10254774e-03, 3.77345597e-03,
          -4.65055835e-03, -8.05023313e-03, -2.00985721e-03,
          -3.97827337e-03, 1.53356849e-03, 2.81001395e-03,
          3.05743492e-03, 1.05574997e-02, 5.00131072e-03, 2.56620999e-03,
          6.29785284e-03, 7.84644205e-03, 2.50115781e-03, 4.23883973e-03,
          3.27288965e-03, -6.10033516e-04, -8.33673868e-03,
          -1.73331983e-02, -7.45643862e-03, -3.54911457e-03,
          6.86767686e-04, -3.50887014e-04, 4.62609949e-03,
          1.61684081e-02, 1.37327975e-02, 1.32485488e-02, 6.79355813e-03,
          5.78555791e-03, 7.81979819e-04, 4.85605840e-03,
          -2.22383277e-03, -4.82692709e-03, -1.41712781e-02,
          -8.18538852e-03, -6.89295679e-03, -4.32724552e-03,
          7.78324844e-04, 4.14490327e-03, 3.76134156e-03, 7.06762029e-03,
          -4.98973648e-04, 5.29423414e-04, 5.22632618e-03,
          7.01072859e-03, 2.69411365e-03, 2.81566265e-03, 3.57900281e-03,
          2.87938630e-04, -6.80743763e-03, -9.69257858e-03,
          -1.02908183e-02, -1.87734037e-03, -1.18503184e-03,
          -1.63929909e-03, 5.24750538e-03, 1.72625352e-02,
          6.71997713e-03, 1.28045864e-02, 1.09053077e-02, 3.70074343e-03,
          9.16175894e-04, -1.99307152e-03, -1.91016670e-03,
          1.07079383e-03, -9.06787440e-03, -1.82827543e-02,
          -6.27123984e-03, -2.97519821e-03, -1.64373999e-03,
          9.78384400e-04, 3.65438568e-03, 1.14075905e-02, 1.11157922e-02,
          1.32225538e-02, 6.92042522e-03, 5.31351194e-03,
          -1.29353639e-03, -1.38787451e-04, -4.42042993e-03,
          -2.98684789e-03, -1.51433274e-02, -9.18933563e-03,
          -4.87156538e-03, -5.48234070e-03, -4.99093300e-03,
          -3.99420969e-03, -5.03566233e-04, 5.69506595e-03,
          1.40391486e-02, 1.05094649e-02, 8.82611889e-03, 7.09826499e-03,
          1.91030063e-04, -2.04227632e-03, -7.12252222e-04,
          3.52898217e-03, -6.75189774e-03, -9.02070478e-03,
          -5.03943115e-03, -2.51111947e-03, -4.13380284e-03,
          -4.25908994e-03, 8.16698885e-04, 1.29794227e-02,
          4.98233363e-03, 8.75869021e-03, 1.12645142e-02,
          -5.24232688e-04, -6.37478987e-03, -5.52831963e-03,
          -7.94903189e-03, -4.40626551e-04, -2.96844938e-03,
          -4.81914030e-03, -4.00673784e-03, -4.67338646e-03,
          -8.77606589e-03, -9.91071947e-03, -1.66414224e-03,
          6.65524043e-03, 1.08856754e-02, 2.45835609e-03, 9.42618586e-03,
          6.57781959e-03, -2.11308897e-03, -8.12831614e-03,
          -4.33516409e-03, 5.79996826e-03, 2.45690020e-03,
          -1.46685429e-02, -8.20174720e-03, -7.34084053e-03,
          -6.88697631e-03, -7.72561878e-03, -4.60376963e-03,
          -4.97224648e-03, 1.81112867e-02, 1.70979612e-02,
          -6.18967833e-03, -3.92442988e-03, -4.10316046e-03,
          -5.39603736e-03, -6.06173649e-03, -4.61870432e-03,
          -1.31869381e-02, -1.26778921e-02, -1.53194764e-04,
          -3.76571610e-04, -3.69490450e-03, -4.17603785e-03,
          -1.61335093e-03, 1.81906647e-03, 2.14612447e-02,
          2.16045640e-02, -2.49284250e-03, -2.11571204e-03,
          -1.51778702e-04, -1.67867052e-04, -2.39777379e-03,
          -1.44673546e-03, -7.24066235e-03, -1.41840177e-02,
          -1.04601933e-02, -8.81255046e-03, -1.08253453e-02,
          -1.22690089e-02, -7.26246601e-03, -5.88752516e-03,
          1.41722485e-02, 9.10334755e-03, -1.11479580e-03,
          1.04823220e-03, -8.07837991e-04, -5.57299843e-03,
          -8.53257254e-03, -3.88046121e-03, -1.02725513e-02,
          -4.76155384e-03, -1.49367249e-03, -1.20033487e-03,
          -3.89386364e-03, -5.24535030e-03, -7.67202629e-03,
          -3.69088445e-03, 1.29572265e-02, 1.46068754e-02,
          3.57864122e-03, 2.44977954e-03, -1.16150179e-04,
          -1.30681950e-03, -3.75533826e-03, -4.90889252e-05,
          -5.18350955e-03, -4.69998969e-03, 8.37423722e-04,
          2.88953830e-04, -4.69493493e-03, -6.92189019e-03,
          -7.11627584e-03, -5.35049709e-03, 3.65572120e-03,
          8.23218096e-03, -7.32937595e-04, -3.06534581e-03,
          -5.47329569e-03, -5.56128239e-03, -1.53456023e-03,
          7.39727344e-04, -4.50338889e-03, -1.07659772e-02,
          6.31764240e-04, 9.72832961e-04, 1.20839213e-04,
          -5.59371896e-03, -7.00010266e-03, -6.71431329e-03,
          6.62624324e-03, 8.30745697e-03, 2.38533644e-03,
          -2.13308632e-03, -5.62173687e-03, -5.80602372e-03,
          -1.92725728e-03, 5.97484235e-04, -1.07103335e-02,
          -1.45907537e-03, 2.47602398e-03, 1.38613244e-03,
          -2.67835194e-03, -6.19883137e-03, -5.13085956e-03,
          -6.64825039e-03, -6.24504173e-04, 1.45919503e-05,
          1.19251921e-03, -3.93091422e-03, -5.13932807e-03,
          -7.11016823e-03, -2.70037097e-03, 7.69162900e-04,
          -1.76201796e-03, -4.92764544e-03, 3.30075738e-03,
          5.26537839e-03, 4.62987553e-03, -4.93393233e-03,
          -7.41962017e-03, -4.98128356e-03, 3.44347651e-03,
          5.46260085e-03, 3.01061734e-03, -3.83393397e-03,
          -4.47478984e-03, -2.37666233e-03, -1.65295647e-03,
          1.57931808e-03, -6.41788542e-03, -1.36220157e-02,
          -2.35430850e-03, 3.50796944e-03, 2.14585196e-03,
          8.46237410e-04, 1.52015127e-03, 3.53355240e-03, 4.85952757e-03,
          7.55834347e-03, 3.50635475e-03, -5.13170054e-03,
          -5.22506749e-03, -4.21635620e-03, -5.96447266e-04,
          5.15203865e-04, -1.45591833e-02, -1.40157267e-02,
          -2.92339339e-03, 8.06287571e-04, -9.43356310e-04,
          1.59703684e-03, 9.85362288e-03, 6.96346490e-03, 8.84188805e-03,
          1.28166582e-02, 2.80984212e-03, -1.08444277e-04,
          -6.07000059e-03, -7.83682056e-03, -2.50124419e-03,
          -4.05409606e-03, -1.69749111e-02, -1.33329760e-02,
          -1.35001028e-03, 7.58377742e-03, 4.99711093e-03,
          -1.16752950e-03, -4.97181714e-03, -3.18464753e-03,
          3.10113607e-03, 2.21195677e-03, 3.62633495e-03,
          -5.81006240e-03, -6.36728108e-03, -2.11289921e-03,
          -2.66289036e-03, -1.64488854e-04, -1.63364261e-02,
          -1.40303858e-02, -4.29164944e-03, 4.71434649e-03,
          3.96863883e-03, 6.27668051e-04, 6.21534279e-03, 5.13887033e-03,
          9.46376286e-03, 1.39011294e-02, 3.62125295e-03, 1.26612268e-03,
          -7.20864534e-03, -5.88452118e-03, -6.37666602e-03,
          -6.13366626e-03, -1.92135349e-02, -1.45359547e-03,
          -4.02054779e-04, 5.50571596e-04, -5.70111582e-03,
          -1.45394832e-03, 4.18592198e-03, 2.01260112e-03,
          1.04669472e-02, 1.49288131e-02, 2.64264806e-03,
          -2.87571718e-04, -1.46380113e-03, -3.20197945e-03,
          -1.01724683e-04, -1.70707924e-03, -2.99196271e-03,
          -4.64458688e-04, 2.19075228e-05, 5.23773895e-04,
          -6.87135290e-03, -1.81797164e-04, -8.60529370e-04,
          -2.42694281e-03, -5.22283325e-03, -1.89155177e-03,
          -2.82267993e-03, -6.48197671e-03, -8.41460750e-03,
          -8.99163447e-03, -7.40910415e-03, -2.64088419e-04,
          2.93427320e-06, -3.40141566e-03, -1.06722966e-03,
          2.56447541e-03, 1.14895310e-03, 1.80142850e-03, 5.80196083e-03,
          5.46520017e-03, 4.10927739e-03, 8.35809670e-03, 5.47143351e-03,
          8.26211006e-04, -1.32071774e-03, 6.18932070e-04,
          -3.66227049e-03, -8.51751131e-04, -6.32216735e-03,
          -2.85716564e-03, 4.53807786e-03, 2.39267619e-03,
          -2.70124804e-03, 1.58916146e-03, 1.36575883e-03,
          -2.66514160e-03, -7.25113088e-03, -6.91976352e-03,
          -5.15474053e-03, -8.32540542e-03, -6.70775911e-03,
          -5.64100128e-03, -6.00396469e-03, 2.57023610e-03,
          -1.97186414e-03, 1.81825017e-03, 3.67286149e-03,
          2.60922266e-03, -3.13510798e-04, 2.92568398e-03,
          2.10199552e-03, 2.83428072e-03, 4.12686123e-03, 6.50719926e-03,
          1.01779355e-03, 9.23226529e-04, -3.54969804e-03,
          -3.62903276e-03, -2.06737546e-03, -2.00578501e-03,
          2.95874081e-03, -3.26783070e-03, 2.38524587e-03,
          1.16137497e-03, 1.64443906e-03, 2.70535983e-03,
          -1.51350140e-03, -3.87763930e-03, -4.53821523e-03,
          -3.04243900e-03, -2.36990186e-03, -1.17067003e-03,
          -9.30028677e-04, -3.11268843e-03, 1.66386366e-03,
          -2.06928374e-03, -1.89371139e-03, -1.20485562e-03,
          6.70517143e-03, 5.31486189e-03, 1.78511557e-03, 4.12044069e-03,
          4.15443396e-03, 3.43083823e-03, 1.07147812e-03, 1.08132395e-03,
          4.04628366e-03, -5.20327711e-04, 1.48558768e-03,
          1.94307242e-03, 3.43467132e-03, 5.40849427e-03, 1.90943037e-03,
          -9.31971706e-03, -4.16936446e-03, -3.13769584e-03,
          -4.48004017e-03, -1.62886060e-03, -2.92647426e-04,
          -6.53325487e-03, -6.78141741e-03, -9.75220231e-04,
          1.01148803e-03, -5.24986768e-03, -3.15919821e-03,
          -3.21774883e-03, 3.93234706e-03, 2.47458369e-03,
          -4.16711019e-03, 8.96298420e-03, 4.53817239e-03,
          3.68872518e-03, 8.83174408e-03, 1.12628806e-02, 6.29272545e-03,
          1.99710415e-03, 2.61034141e-03, -5.64458278e-05,
          6.02486543e-04, 1.99679914e-03, 6.24831673e-03, 2.92625488e-03,
          4.29588230e-03, 4.00183862e-03, 7.01439334e-03, 6.49790885e-03,
          1.01517432e-03, 7.24053767e-04, 6.84101414e-03, 7.45472545e-03,
          3.95289110e-03, -3.39022814e-03, -6.08427497e-03,
          -6.45448361e-03, -6.60248846e-03, 3.36969737e-03,
          4.84290905e-03, 9.27066605e-04, 2.56430311e-03, 1.45588559e-03,
          1.46616960e-03, 1.64369791e-04, 1.08407927e-03, 8.93322635e-04,
          4.23265574e-03, 6.18286151e-03, 5.02582174e-03, 4.98516066e-03,
          7.27578299e-03, 6.84846565e-03, -5.68665145e-03,
          -1.59658678e-03, 2.50636623e-03, 6.36442099e-04,
          3.09098116e-03, 7.48758018e-03, 4.96310461e-03, 4.92992299e-03,
          -2.95272097e-03, 4.35709313e-04, 3.60654289e-04,
          3.02499300e-03, 7.47944403e-04, -5.41110011e-03,
          -6.52207714e-03, -7.92415533e-03, -1.62660591e-02,
          -3.69249354e-03, 8.83700617e-04, -6.43780874e-03,
          -8.49998090e-04, 6.18617702e-03, 4.40626219e-03,
          4.52930294e-03, 3.77960154e-03, 2.22690753e-03, 4.92670946e-03,
          3.39212338e-03, -2.43549104e-04, -4.55262884e-03,
          -2.55589907e-06, 1.33904163e-03, 1.01297547e-03,
          4.33940208e-03, 3.85653879e-03, 6.77879807e-03, 2.70701968e-03,
          3.27753625e-03, -4.46358579e-04, 1.05350581e-03,
          4.32439195e-03, 7.58248556e-04, 3.29318154e-03, 4.55308380e-03,
          2.34921440e-03, 1.91877698e-05, -6.32288912e-03,
          -6.56839227e-03, -5.79771120e-03, 1.69266670e-04,
          -1.26321369e-03, 2.99827056e-03, 2.67885800e-04,
          -1.41876540e-03, -4.68471926e-03, 7.17436802e-03,
          1.67756435e-03, 2.83183600e-03, 3.31148156e-03, 2.65028095e-03,
          1.38967531e-03, -4.51236730e-03, -9.14899632e-03,
          -3.52828670e-03, -7.76395807e-03, -9.35490418e-04,
          2.33827787e-03, 2.70499568e-03, 4.58323630e-03, 6.29398506e-03,
          4.64548776e-03, 1.27136987e-02, 7.27220345e-03, 3.74859083e-03,
          9.01367608e-03, 9.37080849e-03, 3.01749189e-03,
          -1.16067147e-03, -1.32641746e-02, -1.03083774e-02,
          -4.90734307e-03, 3.47673125e-03, 4.33130329e-03,
          7.92725291e-03, 8.57770350e-03, 6.52061542e-03, 1.16462084e-02,
          -1.24452682e-02, -3.29306652e-03, -8.62192537e-04,
          -1.19482342e-03, 7.12482550e-04, 2.49126533e-05,
          -1.37042592e-03, 2.69518723e-03, 1.55373663e-03,
          -2.65782559e-03, -6.26580557e-04, 9.71116009e-04,
          8.36608640e-04, -3.66736320e-03, -7.50531768e-03,
          -1.34302313e-02, -2.13800874e-02, -7.88356736e-03,
          -8.53305392e-04, -9.63828992e-04, 1.49997417e-03,
          -2.18005525e-03, -1.16543239e-02, 7.60618190e-04,
          1.13652949e-03, -2.44133431e-03, -5.15850377e-04,
          9.85694933e-04, 1.00233985e-04, -3.46855121e-03,
          -9.84088797e-03, -2.46212091e-02, 1.43693388e-03,
          2.91773980e-03, 1.82158174e-03, 2.72424030e-03, 3.98030132e-03,
          7.64107273e-04, -1.35343149e-03, -8.54185596e-03,
          -8.04368407e-03, 3.38333845e-03, 1.11348080e-02,
          1.23944143e-02, 6.92832191e-03, 4.18003323e-03, 5.24354912e-03,
          4.88785561e-03, -1.21635967e-03, 2.80501461e-03,
          6.89828722e-03, 8.06475710e-03, 9.14388802e-03, 3.49742663e-03,
          -4.70665935e-03, 8.78245744e-04, 1.11194002e-03,
          8.91289953e-03, 1.73033141e-02, 1.52074266e-02, 8.24136566e-03,
          6.15721615e-03, 5.58906002e-03, -2.28465255e-03,
          -1.63807794e-02, -5.40977530e-03, -2.23400514e-03,
          -3.67784314e-03, -3.53892078e-03, -2.95186788e-03,
          -1.36855170e-02, 5.74142020e-03, -2.19994588e-04,
          -7.04160193e-03, -2.64023663e-03, -2.78192898e-03,
          -5.77640953e-04, -2.98860716e-03, -1.06796734e-02,
          -1.92097779e-02, -9.88339819e-03, -3.65047809e-03,
          6.40080951e-04, -3.90175206e-04, -1.32640125e-03,
          -1.80130708e-03, -6.98541291e-03, 4.06306935e-03,
          8.79937783e-03, -6.76547410e-03, -3.83394724e-03,
          -1.03569333e-03, -5.72429097e-04, -5.60728833e-04,
          -6.20491151e-03, -1.04006147e-02, 1.79483253e-03,
          4.45815874e-03, 3.61503568e-03, 3.99377896e-03, 6.01628143e-03,
          5.61123714e-04, -8.05691723e-03, -1.60772982e-03,
          -6.57974510e-04, 5.22536458e-04, 8.36497638e-03,
          5.90810925e-03, 7.82661512e-03, 5.60857402e-03, 2.26282235e-03,
          -3.83372302e-03, 5.04106143e-03, 3.90335009e-03,
          1.27415778e-03, 2.65659206e-03, 2.06374680e-03,
          -2.65823607e-03, -7.36620510e-03, 8.33819527e-03,
          1.27656385e-02, 2.65526207e-04, 4.06658463e-03, 4.07925621e-03,
          8.66280776e-03, 5.45094721e-03, 2.63797748e-03,
          -1.13288574e-04, -1.43244714e-02, -5.08802244e-03,
          -1.88204824e-04, -5.89305710e-04, -2.37565720e-03,
          -5.26621332e-03, -8.73509236e-03, 9.16826539e-03,
          4.31662705e-03, -9.74617805e-03, -2.29892111e-03,
          -3.65365157e-03, -4.63742390e-03, -1.12723082e-03,
          -5.12398779e-03, -1.41107729e-02, -9.96264163e-03,
          -3.93700833e-03, -2.42974283e-03, 6.73560426e-04,
          -1.31535961e-03, -2.63937213e-03, -4.21979465e-03,
          7.73924403e-03, 8.49891454e-03, -2.85073952e-03,
          -4.29152024e-05, -4.63236449e-03, -5.95053798e-03,
          -3.19862948e-03, -4.54050396e-03, -1.14123318e-02,
          -2.63488386e-03, 9.10494186e-04, 1.18893164e-03,
          1.28266506e-03, -2.46747048e-03, -6.52412977e-03,
          -1.23305898e-02, 1.10947127e-02, 9.63038765e-03,
          -3.73905501e-03, 2.41411990e-03, 2.33130064e-03,
          4.66812664e-04, 2.65035895e-03, 9.28800961e-04,
          -4.91705257e-03, -7.53633119e-03, -1.41593360e-03,
          -4.36843984e-04, 2.24127248e-03, -2.04793178e-03,
          -3.13474471e-03, -8.58522858e-03, 3.53340758e-03,
          5.28865494e-03, -5.56677440e-03, 2.27355585e-03,
          1.65830634e-03, -5.16050728e-03, -6.35363802e-04,
          -2.31815479e-03, -8.10562540e-03, 1.76940463e-03,
          -1.01852627e-03, 7.66425743e-04, -9.91417328e-04,
          -1.39203959e-03, -1.07555999e-03, 5.60476724e-03,
          4.62114403e-04, -8.15815351e-04, -5.84440678e-03,
          5.72099118e-04, 1.00970377e-04, 9.82502941e-04,
          -3.18788271e-03, -2.68855970e-03, -9.14111268e-04,
          2.85100960e-03, 9.63275728e-04, 1.80933822e-03, 1.56782960e-04,
          -2.16705399e-03, 9.36864759e-04, 7.60812499e-03,
          1.55483512e-03, -4.96846903e-03, 3.06954444e-03,
          2.76900060e-03, 4.36776737e-03, 1.01179129e-03, 1.32944857e-04,
          -2.85720889e-04, 2.80583883e-03, 1.87516736e-03,
          4.00516758e-04, 1.43204825e-05, -6.58661811e-05,
          4.14124690e-03, 2.65637762e-03, 9.33143590e-03, 2.19293009e-03,
          -2.13962747e-03, -2.58448534e-03, -2.49378476e-03,
          -2.29324354e-03, -3.32032621e-04, -4.78858361e-03,
          -5.57326665e-03, -2.82783271e-03, -7.21330661e-03,
          -2.95607024e-04, 1.58488064e-03, 1.08474022e-04,
          -1.99532998e-03, 1.41772430e-03, 5.45768579e-03,
          2.26970689e-04, -4.82486142e-03, 3.83452070e-03,
          2.63179652e-03, 1.83250709e-03, -7.97499786e-04,
          6.27384346e-04, -8.29590426e-05, -2.64120009e-03,
          -3.09739821e-03, -9.69227112e-04, -3.79760843e-03,
          -6.27330318e-03, -6.56466838e-03, -2.34320667e-03,
          9.87105072e-03, 6.78854296e-03, 4.48191678e-03, 5.50687313e-03,
          3.75310029e-03, 4.78681829e-03, -1.39641890e-03,
          -3.66288761e-04, 1.29439263e-03, 2.61999550e-03,
          -8.65325332e-03, -5.01742400e-03, -8.99637956e-03,
          -9.31934547e-03, -8.46087188e-03, -7.66986422e-03,
          1.27773514e-04, 1.57799982e-02, 1.35611184e-02, 9.21117701e-03,
          3.58836725e-03, 6.55209599e-03, 3.70537443e-03, 1.53958169e-03,
          4.80842637e-03, 1.77192658e-06, -9.06621292e-03,
          -2.68500648e-03, -8.56015016e-04, -5.86401904e-03,
          -5.97134884e-03, -1.26554840e-03, 9.31877457e-03,
          2.88667972e-03, -1.17686694e-04, 9.95463692e-03,
          5.17288642e-03, 4.04610531e-03, -5.68145711e-04,
          2.11924897e-03, 3.39659839e-03, -5.33768022e-03,
          -1.31301731e-02, -6.35484094e-03, -7.63942068e-03,
          -7.96614867e-03, -6.28866768e-03, -4.57523484e-03,
          5.91570185e-03, 1.73692834e-02, 1.79556906e-02, 1.39779476e-02,
          1.88391458e-03, 3.47127410e-04, 1.05997524e-03, 2.87845382e-03,
          5.88577893e-03, -1.03172427e-02, -7.44917151e-03,
          -4.16819565e-03, -4.20156214e-03, -7.57063739e-03,
          -1.00769270e-02, -1.55682454e-03, 6.60581980e-03,
          9.74665396e-03, 9.02294274e-03, 9.06483736e-03, 1.66878430e-03,
          2.80998298e-03, 2.19482509e-03, 1.33289514e-05, 2.58499221e-03,
          -2.80220062e-03, -9.11202747e-03, -6.22110150e-04,
          6.67354674e-04, 1.60770011e-04, -1.35253381e-03,
          -9.89151420e-04, 8.67311377e-03, 3.46377934e-03,
          1.90708408e-04, 1.37811117e-02, 6.18265942e-04,
          -1.88579794e-03, 6.23836822e-05, -1.14447135e-03,
          -2.13233614e-03, -4.84319078e-03, -1.48238763e-02,
          -2.02458585e-03, -4.07021027e-03, -2.44743563e-03,
          -7.18742097e-03, -6.70948706e-04, 7.25735491e-03,
          9.91947390e-03, 1.39269009e-02, 7.49126403e-03, 2.04838789e-03,
          -2.14696047e-03, 2.00622206e-04, 5.90298558e-04,
          1.16148777e-03, -1.62133723e-02, -1.94744263e-02,
          1.53042818e-03, -3.50297615e-03, 4.46954556e-03,
          -3.22068809e-03, 3.04019754e-03, 8.47431738e-03,
          7.29074655e-03, 3.62199708e-03, 1.36355683e-02, 2.58733798e-03,
          -2.84214597e-03, -4.99679521e-03, -5.54899918e-03,
          -6.26484398e-03, -2.02513747e-02, -8.58585816e-03,
          -1.31894473e-03, 2.15044548e-03, 3.40136699e-03,
          1.73354079e-03, -1.40330452e-03, 5.82776312e-03,
          4.77074087e-03, 3.98887740e-03, 1.06450384e-02, 1.01045780e-02,
          6.55806158e-03, 2.52101291e-03, 2.40663229e-03, 1.63052115e-03,
          -4.91145859e-03, -9.46109463e-03, -5.28807379e-03,
          1.12982618e-03, 4.55618720e-05, 1.37284747e-04, 1.74009823e-03,
          1.06508629e-02, 8.64039361e-03, 1.45893162e-02, 1.26394536e-02,
          7.63663277e-03, 4.98572644e-03, -3.06106196e-03,
          -2.36205640e-03, 1.52193522e-03, -4.94302530e-03,
          -1.46103967e-02, -1.82104076e-03, 4.21600911e-04,
          3.66046559e-03, -2.31715338e-03, -1.07029511e-03,
          5.17939450e-03, 3.65652516e-03, 6.18025102e-03, 9.62208211e-03,
          4.75958362e-03, 4.03394224e-03, -2.82439077e-03,
          -2.41166051e-03, -1.11579150e-03, -1.35450969e-02,
          -1.75708476e-02, -8.56500585e-03, 3.85163090e-04,
          3.50309559e-03, 7.38424994e-03, 6.11475855e-03, 5.68358507e-03,
          7.81175820e-03, 1.02697210e-02, 4.38899966e-03, 2.61694659e-03,
          3.05423536e-03, -5.79073001e-03, -8.02679732e-03,
          -7.01528043e-04, -1.52533408e-02, -8.28905404e-03,
          -5.07685030e-03, -1.63151638e-03, -3.12032201e-03,
          3.09980038e-04, 5.46447991e-04, 5.97615307e-03, 5.86369820e-03,
          6.33706944e-03, 5.47009427e-03, -4.59668553e-03,
          -5.53661073e-03, -7.44760409e-03, -9.58353560e-03,
          1.65216543e-03, -2.48713419e-03, -1.23812747e-03,
          -1.69960828e-03, -1.55379646e-03, -5.68850944e-03,
          -3.72034870e-03, 1.64856599e-03, 4.18532500e-03,
          1.35260541e-02, 2.80306744e-03, 6.73397770e-03,
          -9.39004356e-04, 1.72621093e-03, -8.40537157e-03,
          -4.58828779e-03, 6.50547585e-03, 1.31753564e-03,
          -2.40348261e-02, -1.06937457e-02, 1.20389252e-03,
          2.84615462e-03, 6.42548082e-03, 5.36258332e-03, 7.31502194e-03,
          7.03010755e-03, 5.53609803e-03, 5.56124469e-05,
          -5.33523737e-03, -3.69935553e-03, -7.09680747e-03,
          -1.10670123e-02, -6.65397150e-03, -1.72202475e-02,
          -7.28371739e-03, -4.36097244e-03, 9.99187701e-04,
          -8.01354938e-04, 3.50784487e-03, 4.60391119e-03,
          8.11864063e-03, 1.41088143e-02, 6.89791422e-03, 6.21977728e-03,
          -5.72413765e-03, -2.85121868e-03, -6.52320730e-03,
          -6.19518477e-03, 4.55390662e-03, -7.15391245e-03,
          -5.09614917e-03, -5.14823804e-03, -4.08057077e-03,
          -6.04619691e-03, -5.45395352e-03, -3.17072496e-03,
          2.21530165e-04, 1.37277516e-02, 1.00579644e-02,
          -7.00470351e-04, -5.10790618e-03, -2.95152469e-03,
          -5.78647852e-03, -6.19321316e-03, 1.99719478e-04,
          -5.35161281e-03, -4.40053362e-03, -2.84559769e-03,
          -3.28075071e-03, -2.14385870e-03, -6.14084769e-04,
          -3.08390404e-03, 4.37601884e-05, 1.20404586e-02,
          9.37602762e-03, 3.36864498e-04, 1.59582926e-03, 4.07491904e-03,
          1.63132593e-03, -9.10984643e-04, 3.05328215e-03,
          -4.36864793e-03, -1.21195130e-02, -2.44950596e-03,
          -5.11663826e-03, -7.62439799e-03, -4.19281330e-03,
          -3.84745770e-04, -1.83670010e-04, 7.86932092e-03,
          5.62806288e-03, -1.04545569e-03, -8.24723300e-03,
          -7.34540541e-03, -9.91634838e-03, -1.00958478e-02,
          -1.83058844e-03, -1.50126563e-02, -1.70697533e-02,
          -6.22896105e-03, -4.20634216e-03, -8.20115115e-03,
          -7.42067583e-03, 2.30710744e-03, 7.54589494e-03,
          1.45289861e-02, 9.12622176e-03, -4.13220981e-03,
          -1.11831352e-03, 2.92929821e-03, 2.37479177e-03,
          -4.04157443e-03, -2.41024396e-03, -1.84620991e-02,
          -4.14771261e-03, -2.01202161e-03, -5.82350791e-03,
          -6.61789346e-03, -6.24384591e-03, -3.41789564e-03,
          -5.94015978e-03, -6.88566302e-04, 3.67274944e-04,
          1.84844575e-05, -1.59894454e-03, 1.13544497e-03,
          -2.38950877e-03, -1.37993076e-03, 2.70795519e-03,
          -3.17032402e-03, -3.05807707e-03, 2.36248656e-04,
          2.54410785e-04, -1.44851021e-03, -5.94020169e-03,
          -4.97398060e-03, -4.52862913e-03, 4.70775762e-04,
          2.38204328e-03, 6.28571957e-03, -5.94816054e-04,
          4.56832175e-04, 1.29320147e-03, 8.28307384e-05, 4.48726292e-04,
          -4.46164887e-03, -1.73424147e-02, -7.27741094e-03,
          -1.18587026e-02, -1.37207629e-02, -1.34380627e-02,
          -4.90915123e-03, 1.14253233e-03, 7.96489976e-03,
          5.74817229e-03, -2.65500089e-03, -1.83858606e-03,
          -4.41809796e-04, -8.11854145e-04, 9.27765912e-04,
          -1.25407102e-03, -1.46004604e-02, -6.18933653e-03,
          -1.21713337e-03, -4.45329351e-03, -3.97565681e-03,
          -7.01213395e-03, -5.73694566e-03, 1.77215005e-03,
          6.24530530e-03, 4.61223256e-03, 6.51300931e-03, 4.26437519e-03,
          4.02236852e-04, 1.62057299e-03, 5.93988830e-03,
          -2.87371315e-03, -9.68151074e-03, -8.19122978e-03,
          -4.21231176e-04, 4.52146120e-03, 1.74171547e-03,
          -3.92417610e-03, -4.15607495e-03, -5.33665018e-03,
          -3.93847469e-03, -2.04348168e-03, 2.31645443e-03,
          -2.59781512e-03, -2.90454179e-03, -1.08494540e-03,
          -8.45984265e-04, -2.41482630e-03, -1.05620949e-02,
          -1.05349561e-02, -8.60166328e-04, 3.56288580e-03,
          3.20264557e-03, -3.38925049e-04, 5.33968536e-03,
          1.44285371e-03, 1.12348329e-02, 1.34748397e-02, 5.10686124e-03,
          2.42450531e-03, -6.21078676e-03, -6.13799831e-03,
          -1.89530291e-03, -8.86133639e-04, -1.27407769e-02,
          -1.07242540e-02, -2.20753113e-03, -6.16664882e-04,
          6.20453618e-04, -4.10397863e-03, -5.76019613e-03,
          4.61073098e-04, 3.61983106e-03, 4.62563010e-03, 3.02860467e-03,
          -2.54730461e-03, -3.25626228e-03, -4.29779012e-03,
          -9.26988141e-04, -5.10294596e-03, -1.25884432e-02,
          -1.62097830e-02, -2.12599663e-03, 1.27374113e-03,
          4.65278281e-03, 1.75648555e-03, 5.62798092e-03, 7.61345495e-03,
          2.09287871e-02, 1.80613156e-02, 9.26274620e-03, 1.26603292e-03,
          -6.74080616e-03, -7.87787978e-03, -2.12206435e-03,
          -1.01865502e-03, -1.78015679e-02, -5.64124994e-03,
          -7.35338472e-06, 1.76662381e-03, 2.40507582e-03,
          -1.64383920e-04, 4.81781922e-03, 4.23698453e-03,
          6.79712684e-04, 3.96587700e-03, 5.59336878e-03, 1.20943249e-03,
          -3.34399752e-03, -9.70488123e-04, -9.65305255e-04,
          1.89210055e-03, -8.17803852e-03, -3.66993807e-03,
          4.14509699e-03, 2.37667561e-03, 2.88626389e-03, 3.52314021e-03,
          6.70922920e-03, 3.48712038e-03, -1.12175550e-02,
          -9.66779608e-03, -4.09834553e-03, -4.51095356e-03,
          -1.14239752e-03, -4.15273756e-03, -5.69173077e-04,
          2.78455275e-03, -3.81965330e-03, -1.32051893e-02,
          2.03112792e-03, 3.30361235e-03, 6.76654838e-03, 3.46108177e-03,
          8.49801768e-03, 5.80933644e-03, 7.22230365e-03, 1.07328063e-02,
          5.53591037e-03, 4.92528453e-03, -2.16035685e-03,
          -1.79421739e-03, 2.93039205e-03, 3.15225287e-03,
          -1.63873043e-02, -1.37120122e-02, 1.84843561e-03,
          -6.99062599e-04, 3.58574232e-03, 3.30356765e-03,
          1.00118481e-02, 8.20408296e-03, -1.23528391e-03,
          7.19662989e-03, 6.33807445e-04, 6.66914275e-03, 3.00386455e-03,
          -3.41717456e-03, 4.87833563e-03, 6.07956527e-03,
          -1.23853516e-02, -9.86017403e-04, 3.27507616e-03,
          2.93849525e-03, 8.57328705e-04, 2.40470981e-03, 6.05197717e-03,
          1.50740927e-03, 1.66875403e-03, -2.39940055e-04,
          -2.86075356e-03, -1.92024454e-03, 2.51306756e-03,
          3.60496138e-04, 4.58847173e-03, 5.33136632e-03, 2.06801062e-03,
          -1.15441028e-02, -6.90426491e-03, -6.81576459e-03,
          -9.04976018e-03, -7.15572666e-03, -4.75380197e-03,
          -7.06721237e-03, -1.68292213e-03, -3.08253593e-03,
          -5.90867456e-03, -9.77155101e-03, -8.05605948e-03,
          -9.03081615e-03, 9.69927816e-04, 2.98949773e-03,
          -7.30543025e-03, -5.95263997e-03, 6.21647749e-04,
          4.19182848e-04, 3.38060828e-03, 5.16467681e-03, 6.77975733e-03,
          5.93941752e-03, 4.99414140e-03, 6.42935233e-03,
          -1.25842309e-03, 5.79104014e-03, 7.94644374e-03,
          6.40255306e-03, 1.11499839e-02, 6.37334539e-03,
          -6.04658015e-03, -1.23670129e-02, -8.60033464e-03,
          -2.69143120e-03, -4.74580890e-03, -4.67660883e-03,
          -9.24290903e-03, -9.23039112e-03, -1.82763417e-03,
          2.25762511e-03, -1.11662112e-02, -2.42910860e-03,
          -8.28369812e-04, 1.87218597e-03, 6.11919491e-03,
          6.85925176e-03, -7.20414333e-03, -9.13725584e-04,
          9.27563757e-04, 1.50426422e-04, -6.67441345e-04,
          3.64619773e-04, 1.35432428e-03, 6.68845465e-03, 1.20428465e-02,
          7.82575645e-03, -5.03180455e-03, -6.79832359e-04,
          -2.04308354e-03, -2.56260671e-03, 3.32588307e-03,
          7.07157468e-03, 2.95539945e-03, 1.18531729e-03,
          -2.11447198e-03, -1.90842850e-03, -1.18002878e-03,
          -4.06713877e-03, -8.69606039e-04, -5.76985162e-03,
          -4.40593949e-03, -4.89616720e-03, -1.80750098e-02,
          -8.68219975e-03, -5.75011084e-03, -3.83211486e-03,
          -2.50983372e-04, 6.70399144e-03, 1.22078578e-03,
          -2.79798335e-03, 1.32662070e-04, 4.81558312e-03,
          1.39496545e-03, 4.51335189e-04, -7.33777648e-04,
          4.63842973e-03, 1.17504578e-02, 1.02783740e-02,
          -1.39196962e-03, 5.33052534e-03, 1.39343168e-03,
          4.27113846e-03, 5.40010026e-03, 8.37587565e-03, 2.46874406e-03,
          -4.53556934e-03, 2.17296812e-03, 3.02933669e-03,
          -1.62123609e-03, -8.07541609e-03, -6.07749727e-03,
          -1.33293606e-02, -2.58335262e-03, -2.15902203e-03,
          -1.16127776e-02, -7.40329595e-03, -6.88624522e-03,
          -2.13214150e-03, -1.31681922e-03, 2.50583631e-03,
          -6.05586334e-04, 7.31886784e-03, 1.58102484e-03,
          9.88483429e-04, 3.38059082e-03, 2.99993460e-03, 1.23669719e-03,
          -4.59424336e-04, -6.21464103e-03, -2.20822077e-03,
          -4.89319814e-03, -5.97770908e-04, 1.85164332e-03,
          3.89569579e-03, 5.58559317e-03, 8.87446571e-03, 5.15898410e-03,
          1.30621251e-02, 5.24350582e-03, 1.36713590e-03, 5.39313210e-03,
          3.00669018e-03, -1.27025170e-03, -1.40085025e-03,
          -1.13865081e-02, -1.01399776e-02, 6.91183435e-04,
          4.77952231e-03, 7.73756672e-03, 7.96564855e-03, 6.43087178e-03,
          6.65903697e-03, 1.17108291e-02, 1.20527204e-03, 2.40241038e-03,
          1.30250049e-03, 3.08216643e-03, -1.43423630e-03,
          -2.44717230e-03, -5.90771483e-03, -6.92989770e-03,
          -5.88418357e-03, 2.90713622e-03, 5.29656699e-03,
          5.86134195e-03, 4.24335897e-03, 3.41610913e-03, 4.23188275e-03,
          -5.36792446e-04, 2.05762312e-03, 1.46934146e-03,
          -5.83725167e-04, 1.45621621e-03, -8.57612293e-04,
          -3.28147458e-03, -3.88540502e-05, -7.90093932e-03,
          -7.70043069e-03, 4.41621849e-03, 4.71954467e-03,
          7.10841035e-03, 7.82565121e-03, 2.60041887e-03, 1.84459134e-03,
          1.63765857e-03, 3.68751353e-03, 2.69851706e-04,
          -6.93169364e-04, -8.13972612e-04, -1.73580681e-03,
          -3.36281955e-03, -3.35641974e-03, -2.00556368e-02,
          -2.04023235e-02, 1.14994694e-03, 3.64901125e-03,
          4.85929707e-03, 2.46554171e-03, 4.05053329e-03, 2.70015094e-03,
          4.19020886e-03, 2.46774731e-03, 4.40139137e-03, 4.63471655e-03,
          4.91242576e-03, 8.02562945e-03, 4.90395864e-03, 3.61711765e-03,
          -2.37041339e-03, -4.39955294e-03, 1.18174069e-02,
          1.19299749e-02, 7.47756800e-03, 4.80343029e-03, 7.56205805e-03,
          6.62986981e-03, 2.57607177e-03, 1.19067857e-03,
          -1.41791964e-03, -2.36355583e-03, -2.82343780e-03,
          -2.02172995e-03, -4.67498042e-03, 2.36348226e-03,
          -1.02428533e-02, -1.13174971e-02, 2.57548789e-04,
          1.20457355e-03, -1.15913153e-03, 6.88614455e-05,
          7.51132902e-04, 5.80807216e-04, 2.00040778e-03, 3.78292939e-03,
          6.12217654e-03, 3.27786850e-03, 2.25681812e-03, 4.29251604e-03,
          3.98843363e-03, 1.20853409e-02, 1.18551636e-03,
          -1.12550391e-03, 8.51899851e-03, 1.12066325e-02,
          2.89732777e-03, 7.74567015e-03, 8.37817136e-03, 8.86891875e-03,
          5.50163258e-03, 1.51352945e-03, 3.06211342e-03, 1.34738442e-03,
          1.91727269e-03, 3.66686098e-03, -1.33856561e-03,
          -4.21794550e-03, -8.18152819e-03, -8.19087401e-03,
          3.13480897e-03, 4.79321275e-03, 2.55718641e-03, 4.81888698e-03,
          5.65273501e-03, 5.00244508e-03, -1.55540765e-04,
          4.17622365e-03, 8.94244469e-04, -2.36225408e-03,
          -1.85845676e-03, -1.45752402e-03, -7.54911639e-03,
          -4.88099316e-03, 5.34600404e-04, 3.93308327e-03,
          -6.70081645e-04, 2.70640850e-03, 2.36664433e-03,
          5.16241882e-03, 2.65560765e-03, 2.11123400e-03, 1.18642848e-03,
          1.35957985e-03, 3.92063335e-03, 2.49138311e-03, 6.28993788e-04,
          3.63063096e-04, -3.22139327e-04, 8.42616614e-03,
          -2.34100455e-03, -3.59662063e-03, 1.49264152e-03,
          5.80985704e-03, 2.27843621e-03, 7.28928437e-03, 6.81340648e-03,
          8.91058706e-03, 4.42421442e-04, -1.59992208e-03,
          2.37849192e-03, 2.82973540e-03, -7.34900183e-04,
          -2.54819635e-04, -1.53886643e-03, 5.31508727e-03,
          7.85979442e-03, 1.04052480e-02, -2.29648058e-03,
          -1.36179803e-03, -1.17851782e-03, -2.67966138e-03,
          1.26021577e-03, 4.19456419e-03, -2.29578954e-03,
          2.71192146e-03, -2.68500153e-04, -5.81933476e-04,
          -9.31393472e-04, -4.20422759e-03, -8.61861371e-03,
          -1.03458073e-02, 6.00004988e-03, 8.59304983e-03,
          -8.53567384e-03, 4.25126695e-04, 1.39651133e-03,
          6.26065303e-04, 3.76078795e-04, 6.24087988e-05,
          -4.17903386e-04, -3.82954115e-03, -2.20888620e-03,
          6.07055495e-04, 5.63009758e-04, -2.14606291e-03,
          -1.66127528e-03, -9.01734643e-03, -1.55398878e-03,
          -3.40460567e-04, -1.26875173e-02, 3.32124153e-04,
          4.16541705e-04, -2.75825989e-03, -1.32019748e-03,
          -7.89888494e-04, -1.98158599e-03, 1.95588174e-04,
          8.48716649e-04, 1.34810258e-03, -1.08249311e-03,
          -3.29992594e-03, -5.44193247e-03, -6.13019057e-03,
          1.06794173e-02, 1.02603314e-02, -9.69042629e-03,
          -1.72021124e-03, -1.78981409e-03, -4.47890069e-03,
          -2.43416801e-03, -7.39593059e-04, -2.03058776e-03,
          -1.96854980e-03, -3.84740043e-03, 4.88384278e-04,
          2.06789555e-05, -4.39908355e-03, -5.10254083e-03,
          -6.25862693e-03, 3.01377289e-03, 2.87176110e-03,
          -1.49343396e-02, -2.10442638e-04, -2.23607104e-03,
          -4.00571851e-03, -3.44030024e-03, -1.15003763e-03,
          -4.93144896e-03, -3.01015726e-03, -1.33270235e-03,
          -1.48928585e-03, 8.75944679e-05, 4.61538509e-03,
          2.65408889e-03, 4.61627776e-03, 9.52471420e-03, 7.92192668e-03,
          4.47350834e-03, 2.18793913e-03, 2.54635961e-04, 6.54232572e-05,
          -2.36596074e-03, -2.64585181e-03, -4.54055564e-03,
          -1.05761755e-02, -1.10207417e-03, 1.99441682e-03,
          2.11243634e-03, 3.49439192e-03, 2.54998403e-03, 3.70968948e-03,
          5.36557345e-04, 6.31118601e-04, 8.71363003e-03, 5.23241097e-03,
          2.09995080e-03, 1.18741661e-03, 1.19821145e-03,
          -6.81547099e-05, -7.40130059e-03, -4.57282318e-03,
          -4.15422348e-03, -3.88335111e-03, -1.89979945e-03,
          -1.06822117e-03, -1.96623080e-03, -6.88172178e-03,
          2.99908430e-03, 4.76295082e-03, 6.96957950e-03, 1.65926840e-03,
          1.19214703e-03, -1.02205784e-03, -1.70144893e-03,
          -2.68703606e-03, -7.65741756e-03, -1.14496276e-02,
          -2.89218361e-03, 3.03682941e-03, 3.41109489e-03,
          2.90349708e-03, 2.57444242e-03, 4.97968541e-03,
          -4.95924894e-03, -1.62402599e-03, 6.64777169e-03,
          2.20229686e-03, 1.55473326e-03, -1.83600304e-03,
          -1.88175251e-03, -2.07523722e-03, -9.79399867e-03,
          -1.22125819e-02, 4.92666382e-04, 4.97042667e-03,
          5.04465541e-04, -1.79215474e-03, -1.75732991e-03,
          6.36861846e-03, -1.96385058e-03, -2.02301797e-03,
          9.65888985e-03, 4.08823462e-03, 3.27510666e-03, 2.19330657e-04,
          2.61588983e-04, 2.72712996e-03, -9.05445125e-03,
          -9.85988230e-03, -5.94394864e-04, 1.06601673e-03,
          -4.82818112e-03, -3.72207304e-03, -3.36707640e-03,
          7.44328508e-03, 1.65575203e-02, 2.04514787e-02, 1.38262436e-02,
          2.20365953e-04, -2.59143347e-03, -1.13710249e-03,
          2.95510213e-03, 4.21726843e-03, -1.04794865e-02,
          -1.41835641e-02, -3.41997860e-04, 7.69635057e-03,
          6.58635935e-03, 4.40996280e-03, 8.84976878e-04, 7.35256309e-03,
          -1.58623327e-03, -1.73558563e-03, 4.70336201e-03,
          -1.44647516e-03, -3.40071856e-03, -7.06882728e-03,
          -3.57878185e-03, 4.90019505e-04, -1.38672050e-02,
          -1.44109363e-02, -1.77017949e-03, 2.29331409e-03,
          -1.56072213e-03, 1.21722103e-03, 1.44223834e-03,
          1.40414396e-02, 1.37919411e-02, 1.34024378e-02, 9.77945887e-03,
          5.32250677e-04, -4.18198202e-03, -4.93923575e-03,
          -3.53548699e-03, -9.56985226e-04, -1.15929674e-02,
          -1.07812341e-02, 1.38251495e-03, -2.19289097e-04,
          -2.96881841e-03, -3.91327310e-03, -6.57175155e-03,
          6.61798986e-03, 8.41869507e-03, 1.29502174e-02, 3.95346386e-03,
          -1.82703545e-03, -4.77916654e-03, -2.98377499e-03,
          2.20197346e-03, 4.16679820e-03, -1.13374498e-02,
          -1.95251312e-02, 6.11527218e-03, -2.84535321e-03,
          -3.03174311e-04, -3.51612642e-03, 4.01544879e-04,
          2.27280334e-03, 1.95367727e-03, 5.62641583e-03, 5.71834669e-03,
          -1.77146948e-03, -1.15302659e-03, -4.12473874e-03,
          -2.18067248e-03, 1.80636125e-03, -1.91670414e-02,
          -1.47656556e-02, -8.64771835e-04, -1.71609491e-03,
          -2.23021000e-03, -1.50924793e-03, -2.67630443e-03,
          1.14648836e-02, 6.84398459e-03, 8.97608884e-03, 9.54220351e-03,
          -1.37500430e-03, -3.41294147e-03, -3.96905513e-03,
          -2.80936342e-03, 1.25844462e-03, -1.18674953e-02,
          -1.61004011e-02, 5.67495218e-03, -3.81790916e-03,
          -2.73645762e-03, -3.68937314e-03, 1.92933925e-03,
          3.30627779e-03, -2.42987182e-03, 4.51692473e-03,
          1.07759070e-02, 1.48062303e-03, 8.34336155e-04,
          -2.28004646e-03, -2.84385146e-03, 2.46382016e-03,
          -1.96488481e-02, -1.78962238e-02, 5.68728941e-03,
          2.14793417e-03, -1.80581596e-03, -4.09065699e-03,
          1.70048967e-03, -4.39344847e-04, 1.21263973e-03,
          6.62204716e-03, 1.48328207e-03, -2.88445596e-03,
          -1.56067975e-03, -4.17471817e-03, -9.27362649e-04,
          4.16092156e-03, -1.42974006e-02, -2.17375252e-02,
          -1.41294487e-03, 1.48608116e-03, -7.50636857e-04,
          6.25138578e-04, 5.89436339e-03, 8.15714151e-03, 1.13259098e-02,
          1.06647694e-02, -1.12450402e-03, -5.43153053e-03,
          -3.47807119e-03, -1.01430845e-02, -4.07625828e-03,
          -1.03790092e-03, -2.00527553e-02, -9.53357480e-03,
          1.08137978e-02, 2.93202559e-03, 6.94373797e-04,
          -1.50702405e-03, 5.72430762e-03, 1.11189869e-03,
          4.19408409e-03, 9.24312510e-03, 9.50786658e-03, 1.77701132e-03,
          1.70092040e-04, -1.62850518e-03, -2.75373546e-04,
          5.69247361e-03, -9.81950853e-03, -1.46297114e-02,
          7.32852938e-03, 6.07955642e-03, 4.35135700e-03, 1.36674021e-03,
          1.14679970e-02, 1.71612166e-02, 1.23738712e-02, 1.82417352e-02,
          1.35793556e-02, 5.09385578e-03, -6.14154153e-03,
          -4.97832103e-03, 1.63434236e-03, 2.02521449e-03,
          -1.60225891e-02, -2.90068332e-02, -6.71709189e-03,
          -9.04819444e-06, 1.79026043e-03, 3.08912317e-03,
          5.27356472e-03, 1.02321273e-02, 1.27574010e-02, 8.12519155e-03,
          -2.54281959e-03, -3.93917877e-03, -3.03271646e-03,
          -5.67173772e-03, -5.78332460e-03, -4.58820304e-03,
